{"learner":{"attributes":{"scikit_learn":"{\"_estimator_type\": \"classifier\"}"},"feature_names":[],"feature_types":[],"gradient_booster":{"model":{"gbtree_model_param":{"num_parallel_tree":"1","num_trees":"100"},"iteration_indptr":[0,1,2,3,4,5,6,7,8,9,10,11,12,13,14,15,16,17,18,19,20,21,22,23,24,25,26,27,28,29,30,31,32,33,34,35,36,37,38,39,40,41,42,43,44,45,46,47,48,49,50,51,52,53,54,55,56,57,58,59,60,61,62,63,64,65,66,67,68,69,70,71,72,73,74,75,76,77,78,79,80,81,82,83,84,85,86,87,88,89,90,91,92,93,94,95,96,97,98,99,100],"tree_info":[0,0,0,0,0,0,0,0,0,0,0,0,0,0,0,0,0,0,0,0,0,0,0,0,0,0,0,0,0,0,0,0,0,0,0,0,0,0,0,0,0,0,0,0,0,0,0,0,0,0,0,0,0,0,0,0,0,0,0,0,0,0,0,0,0,0,0,0,0,0,0,0,0,0,0,0,0,0,0,0,0,0,0,0,0,0,0,0,0,0,0,0,0,0,0,0,0,0,0,0],"trees":[{"base_weights":[1.9517498E-1,9.145245E-1,-4.302046E0,1.235704E0,-3.9451962E0,-4.4373304E-1,7.573786E-1,1.2608021E0,-4.4371954E-1,-8.4223163E-1,-4.4389245E-1,1.2159426E0,-4.4161496E-1,1.2717295E0,-4.434738E-1,-4.4365525E-1,1.1897033E0,-3.0688884E0,1.2887205E-1,-4.4085908E-1,1.2732856E0,1.2849858E0,-4.3535486E-1,-0E0,-4.111649E-1,1.2759553E0,2.2800876E-1,1.2893265E-1,-6.1917197E-2,1.2907647E-1,1.241042E0,1.286789E-1,-4.4214925E-1,-4.4358477E-1,1.2907483E-1],"categories":[],"categories_nodes":[],"categories_segments":[],"categories_sizes":[],"default_left":[0,0,0,0,0,0,0,0,0,0,0,0,0,0,0,0,0,0,0,0,0,0,0,0,0,0,0,0,0,0,0,0,0,0,0],"id":0,"left_children":[1,3,5,7,9,-1,11,13,-1,15,-1,17,-1,19,-1,-1,21,23,-1,-1,25,27,-1,-1,-1,29,31,-1,-1,-1,33,-1,-1,-1,-1],"loss_changes":[4.8487612E5,2.0167988E5,1.41501875E4,1.7253781E4,1.2266453E4,0E0,1.2732898E3,7.507E3,0E0,8.0359575E3,0E0,1.5240302E2,0E0,1.0615156E3,0E0,0E0,3.6795404E2,2.7656334E1,0E0,0E0,3.345E2,6.3797607E0,0E0,0E0,0E0,5.9546875E1,1.5115479E3,0E0,0E0,0E0,1.0095992E4,0E0,0E0,0E0,0E0],"parents":[2147483647,0,0,1,1,2,2,3,3,4,4,6,6,7,7,9,9,11,11,13,13,16,16,17,17,20,20,21,21,25,25,26,26,30,30],"right_children":[2,4,6,8,10,-1,12,14,-1,16,-1,18,-1,20,-1,-1,22,24,-1,-1,26,28,-1,-1,-1,30,32,-1,-1,-1,34,-1,-1,-1,-1],"split_conditions":[0E0,5.05E3,3E0,1.0008587E17,1.7339142E9,-4.4373304E-1,8E1,1.7339994E9,-4.4371954E-1,1.7339131E9,-4.4389245E-1,1.000401E13,-4.4161496E-1,1.7339131E9,-4.434738E-1,-4.4365525E-1,3.3036E4,1.7339133E9,1.2887205E-1,-4.4085908E-1,1.0007648E17,1.5607408E-4,-4.3535486E-1,-0E0,-4.111649E-1,1.7339142E9,1.7339142E9,1.2893265E-1,-6.1917197E-2,1.2907647E-1,1.733999E9,1.286789E-1,-4.4214925E-1,-4.4358477E-1,1.2907483E-1],"split_indices":[6,4,6,2,0,0,4,0,0,0,0,2,0,0,0,0,4,0,0,0,2,18,0,0,0,0,0,0,0,0,0,0,0,0,0],"split_type":[0,0,0,0,0,0,0,0,0,0,0,0,0,0,0,0,0,0,0,0,0,0,0,0,0,0,0,0,0,0,0,0,0,0,0],"sum_hessian":[1.4988206E5,1.2921396E5,2.0668098E4,1.212038E5,8.010164E3,2.0130037E4,5.3805994E2,1.206701E5,5.336968E2,1.0998552E3,6.9103086E3,4.944287E2,4.3631195E1,1.204392E5,2.3089629E2,3.9739294E2,7.024623E2,8.02814E0,4.8640057E2,3.281066E1,1.2040639E5,6.907691E2,1.1693161E1,1.9197726E0,6.1083674E0,1.200987E5,3.076872E2,6.897219E2,1.0471487E0,8.430856E4,3.579015E4,2.5079211E2,5.689508E1,3.1047958E2,3.5479668E4],"tree_param":{"num_deleted":"0","num_feature":"19","num_nodes":"35","size_leaf_vector":"1"}},{"base_weights":[1.9066659E-1,8.774117E-1,-3.124482E0,1.0343428E0,-3.176838E0,-3.205025E-1,7.040932E-1,1.1155291E0,-3.2059947E-1,-2.1605878E0,-3.2058606E-1,1.1935551E0,-3.124945E-1,-1.2711797E0,1.1836416E0,8.677261E-1,-3.188267E-1,-3.1182206E-1,1.253554E-1,7.318703E-1,-2.8746047E0,-3.2020098E-1,1.1897254E0,-2.7831724E-1,1.19076386E-1,-3.2005826E-1,1.2313507E-1,-3.205676E-1,1.24801554E-1,1.1944458E0,-3.1981868E-1,8.768853E-1,1.2230545E0,1.2554458E-1,-2.520529E0,1.2555377E-1,1.1496277E0,-3.1967607E0,1.0668471E0,-3.2057986E-1,1.2555334E-1,5.7018083E-2,-3.2050696E-1,-3.033706E-1,1.2417386E-1],"categories":[],"categories_nodes":[],"categories_segments":[],"categories_sizes":[],"default_left":[0,0,0,0,0,0,0,0,0,0,0,0,0,0,0,0,0,0,0,0,0,0,0,0,0,0,0,0,0,0,0,0,0,0,0,0,0,0,0,0,0,0,0,0,0],"id":1,"left_children":[1,3,5,7,9,-1,11,13,-1,15,-1,17,-1,19,21,23,-1,-1,-1,25,27,-1,29,-1,-1,-1,-1,-1,-1,31,-1,33,35,-1,37,-1,39,41,43,-1,-1,-1,-1,-1,-1],"loss_changes":[3.3692797E5,7.799868E4,7.8337656E3,4.063011E4,1.293711E2,0E0,9.7826306E2,1.8826781E4,0E0,4.0005048E2,0E0,1.1816144E2,0E0,1.032129E4,3.0022656E3,3.630626E1,0E0,0E0,0E0,2.8032493E3,2.4379443E3,0E0,2.3270625E3,0E0,0E0,0E0,0E0,0E0,0E0,1.0183281E3,0E0,1.1941172E4,2.4335938E2,0E0,2.2598193E3,0E0,1.4579176E4,2.7150879E1,1.0389722E2,0E0,0E0,0E0,0E0,0E0,0E0],"parents":[2147483647,0,0,1,1,2,2,3,3,4,4,6,6,7,7,9,9,11,11,13,13,14,14,15,15,19,19,20,20,22,22,29,29,31,31,32,32,34,34,36,36,37,37,38,38],"right_children":[2,4,6,8,10,-1,12,14,-1,16,-1,18,-1,20,22,24,-1,-1,-1,26,28,-1,30,-1,-1,-1,-1,-1,-1,32,-1,34,36,-1,38,-1,40,42,44,-1,-1,-1,-1,-1,-1],"split_conditions":[0E0,1.2642E4,3E0,1.7339994E9,2.75184E5,-3.205025E-1,1.7339133E9,3.32E2,-3.2059947E-1,1.7339142E9,-3.2058606E-1,1.7339068E9,-3.124945E-1,1.7339142E9,1.7339131E9,1.7339131E9,-3.188267E-1,-3.1182206E-1,1.253554E-1,1.7339131E9,1.733999E9,-3.2020098E-1,6E0,-2.7831724E-1,1.19076386E-1,-3.2005826E-1,1.2313507E-1,-3.205676E-1,1.24801554E-1,5.099E3,-3.1981868E-1,5.05E3,1.7339142E9,1.2554458E-1,3.257329E-9,1.2555377E-1,1.733999E9,1.7339132E9,2E0,-3.2057986E-1,1.2555334E-1,5.7018083E-2,-3.2050696E-1,-3.033706E-1,1.2417386E-1],"split_indices":[6,14,6,0,14,0,0,3,0,0,0,0,0,0,0,0,0,0,0,0,0,0,1,0,0,0,0,0,0,3,0,3,0,0,16,0,0,0,13,0,0,0,0,0,0],"split_type":[0,0,0,0,0,0,0,0,0,0,0,0,0,0,0,0,0,0,0,0,0,0,0,0,0,0,0,0,0,0,0,0,0,0,0,0,0,0,0,0,0,0,0,0,0],"sum_hessian":[1.4799308E5,1.2259697E5,2.5396107E4,1.18028586E5,4.56838E3,2.4873105E4,5.230023E2,1.1581148E5,2.217113E3,1.27799706E2,4.44058E3,4.6395645E2,5.9045902E1,3.2129458E3,1.1259853E5,3.213445E1,9.566525E1,6.1386533E0,4.5781778E2,1.4281862E3,1.7847598E3,1.557525E2,1.1244277E5,2.3605413E0,2.9773907E1,1.607314E2,1.2674547E3,1.6523116E3,1.3244812E2,1.12322164E5,1.2060891E2,9.285586E3,1.0303658E5,8.354924E3,9.306616E2,7.1425336E4,3.1611242E4,7.832881E2,1.473735E2,7.501811E2,3.086106E4,1.4590352E0,7.8182904E2,5.7945724E0,1.4157893E2],"tree_param":{"num_deleted":"0","num_feature":"19","num_nodes":"45","size_leaf_vector":"1"}},{"base_weights":[1.864886E-1,8.442559E-1,-2.541186E0,1.1678022E0,-2.3846257E0,-2.600149E-1,6.841462E-1,1.1939515E0,-2.600191E-1,1.22314446E-1,-2.5073667E0,1.1653007E0,-2.602205E-1,1.2055228E0,-2.5986406E-1,-1.4169303E0,-2.6011452E-1,-1.5802045E0,1.2236611E-1,-2.584946E-1,1.207216E0,-2.6004145E-1,1.0051755E0,3.409308E-2,-2.3630436E-1,1.2100693E0,1.9966865E-1,1.2105894E0,-3.0000567E-1,1.2253895E-1,1.1741269E0,1.2208624E-1,-2.5912204E-1,1.2219969E-1,-5.0977368E-2,-2.5992405E-1,1.2253802E-1],"categories":[],"categories_nodes":[],"categories_segments":[],"categories_sizes":[],"default_left":[0,0,0,0,0,0,0,0,0,0,0,0,0,0,0,0,0,0,0,0,0,0,0,0,0,0,0,0,0,0,0,0,0,0,0,0,0],"id":2,"left_children":[1,3,5,7,9,-1,11,13,-1,-1,15,17,-1,19,-1,21,-1,23,-1,-1,25,-1,27,-1,-1,29,31,33,-1,-1,35,-1,-1,-1,-1,-1,-1],"loss_changes":[2.5698784E5,1.20562695E5,5.294375E3,1.0333953E4,4.6556133E3,0E0,7.881026E2,4.5702344E3,0E0,0E0,1.0354531E3,6.947308E1,0E0,6.652031E2,0E0,2.311495E3,0E0,1.5128132E1,0E0,0E0,2.9704688E2,0E0,2.155935E2,0E0,0E0,5.459375E1,8.369626E2,5.649292E0,0E0,0E0,5.9854297E3,0E0,0E0,0E0,0E0,0E0,0E0],"parents":[2147483647,0,0,1,1,2,2,3,3,4,4,6,6,7,7,10,10,11,11,13,13,15,15,17,17,20,20,22,22,25,25,26,26,27,27,30,30],"right_children":[2,4,6,8,10,-1,12,14,-1,-1,16,18,-1,20,-1,22,-1,24,-1,-1,26,-1,28,-1,-1,30,32,34,-1,-1,36,-1,-1,-1,-1,-1,-1],"split_conditions":[0E0,5.05E3,3E0,1.0008587E17,1.0001844E16,-2.600149E-1,8E1,1.7339994E9,-2.600191E-1,1.22314446E-1,1.7339142E9,1.000401E13,-2.602205E-1,1.7339131E9,-2.5986406E-1,1.7339131E9,-2.6011452E-1,1.7339133E9,1.2236611E-1,-2.584946E-1,1.0007648E17,-2.6004145E-1,3.3036E4,3.409308E-2,-2.3630436E-1,1.7339142E9,1.7339142E9,2.6E1,-3.0000567E-1,1.2253895E-1,1.733999E9,1.2208624E-1,-2.5912204E-1,1.2219969E-1,-5.0977368E-2,-2.5992405E-1,1.2253802E-1],"split_indices":[6,4,6,2,2,0,4,0,0,0,0,2,0,0,0,0,0,0,0,0,2,0,4,0,0,0,0,13,0,0,0,0,0,0,0,0,0],"split_type":[0,0,0,0,0,0,0,0,0,0,0,0,0,0,0,0,0,0,0,0,0,0,0,0,0,0,0,0,0,0,0,0,0,0,0,0,0],"sum_hessian":[1.4323547E5,1.15406125E5,2.782934E4,1.0489551E5,1.051062E4,2.7330023E4,4.9931586E2,1.0417283E5,7.22676E2,3.4555185E2,1.0165068E4,4.358128E2,6.3503044E1,1.0385623E5,3.1660416E2,8.058191E2,9.35925E3,8.714458E0,4.2709833E2,4.6109615E1,1.0381012E5,5.4159766E2,2.6422147E2,2.1531336E0,6.561325E0,1.0351597E5,2.9414795E2,2.5156906E2,1.2652392E1,7.256002E4,3.0955941E4,2.1561292E2,7.853503E1,2.5048936E2,1.0796982E0,4.1457568E2,3.0541365E4],"tree_param":{"num_deleted":"0","num_feature":"19","num_nodes":"37","size_leaf_vector":"1"}},{"base_weights":[1.8048388E-1,8.176813E-1,-2.1871748E0,1.141063E0,-2.0596957E0,-2.2334166E-1,6.504364E-1,1.1675516E0,-2.2335494E-1,1.1969417E-1,-2.1592793E0,1.1246506E0,-2.2319746E-1,1.1794435E0,-2.2322547E-1,-1.2533699E0,-2.2344048E-1,-1.607447E0,1.19742095E-1,-2.2201216E-1,1.18118E0,-2.2336261E-1,9.71481E-1,5.499781E-2,-2.083915E-1,1.1840941E0,1.9319324E-1,1.1836714E0,-2.4236028E-1,1.1993908E-1,1.1482818E0,1.1945945E-1,-2.2257045E-1,1.1957363E-1,-1.1651613E-2,-2.2327033E-1,1.1993805E-1],"categories":[],"categories_nodes":[],"categories_segments":[],"categories_sizes":[],"default_left":[0,0,0,0,0,0,0,0,0,0,0,0,0,0,0,0,0,0,0,0,0,0,0,0,0,0,0,0,0,0,0,0,0,0,0,0,0],"id":3,"left_children":[1,3,5,7,9,-1,11,13,-1,-1,15,17,-1,19,-1,21,-1,23,-1,-1,25,-1,27,-1,-1,29,31,33,-1,-1,35,-1,-1,-1,-1,-1,-1],"loss_changes":[2.0663555E5,1.0041991E5,3.8126406E3,8.671328E3,3.5370156E3,0E0,6.349959E2,3.8909219E3,0E0,0E0,7.165586E2,7.9100464E1,0E0,5.652656E2,0E0,1.7704832E3,0E0,1.18330555E1,0E0,0E0,2.7465625E2,0E0,1.7727243E2,0E0,0E0,5.003125E1,6.844107E2,4.741974E0,0E0,0E0,4.94541E3,0E0,0E0,0E0,0E0,0E0,0E0],"parents":[2147483647,0,0,1,1,2,2,3,3,4,4,6,6,7,7,10,10,11,11,13,13,15,15,17,17,20,20,22,22,25,25,26,26,27,27,30,30],"right_children":[2,4,6,8,10,-1,12,14,-1,-1,16,18,-1,20,-1,22,-1,24,-1,-1,26,-1,28,-1,-1,30,32,34,-1,-1,36,-1,-1,-1,-1,-1,-1],"split_conditions":[0E0,5.05E3,3E0,1.0008587E17,1.0001844E16,-2.2334166E-1,8E1,1.7339994E9,-2.2335494E-1,1.1969417E-1,1.7339142E9,1.000401E13,-2.2319746E-1,1.7339131E9,-2.2322547E-1,1.7339131E9,-2.2344048E-1,1.7339133E9,1.19742095E-1,-2.2201216E-1,1.0007648E17,-2.2336261E-1,3.3036E4,5.499781E-2,-2.083915E-1,1.7339142E9,1.7339142E9,1.1E1,-2.4236028E-1,1.1993908E-1,1.733999E9,1.1945945E-1,-2.2257045E-1,1.1957363E-1,-1.1651613E-2,-2.2327033E-1,1.1993805E-1],"split_indices":[6,4,6,2,2,0,4,0,0,0,0,2,0,0,0,0,0,0,0,0,2,0,4,0,0,0,0,15,0,0,0,0,0,0,0,0,0],"split_type":[0,0,0,0,0,0,0,0,0,0,0,0,0,0,0,0,0,0,0,0,0,0,0,0,0,0,0,0,0,0,0,0,0,0,0,0,0],"sum_hessian":[1.3696664E5,1.0792239E5,2.9044248E4,9.7019E4,1.0903392E4,2.8578879E4,4.6536868E2,9.626369E4,7.5531445E2,3.232202E2,1.0580171E4,3.999207E2,6.544801E1,9.592844E4,3.352454E2,8.112255E2,9.768946E3,1.0019139E1,3.8990155E2,4.868184E1,9.587976E4,5.634307E2,2.4779478E2,1.4327837E0,8.586355E0,9.559678E4,2.8297302E2,2.33496E2,1.4298793E1,6.696559E4,2.8631191E4,2.0041605E2,8.255698E1,2.3211128E2,1.3847117E0,4.25986E2,2.8205205E4],"tree_param":{"num_deleted":"0","num_feature":"19","num_nodes":"37","size_leaf_vector":"1"}},{"base_weights":[1.7629781E-1,7.948746E-1,-1.9469637E0,1.1179957E0,-1.8412153E0,-1.985821E-1,-1.521166E0,1.1443647E0,-1.9863662E-1,1.1740213E-1,-1.9239676E0,1.1742448E-1,-1.9872864E-1,1.1495626E0,-2.3153928E-1,-1.763881E0,-1.9876114E-1,1.17686324E-1,1.1148305E0,-1.9831468E-1,1.17170446E-1,6.8765336E-1,-1.9872113E-1,1.1768242E-1,1.0539726E0,7.468727E-1,-1.8054247E-1,-1.9866101E-1,1.1454676E0,-1.7767178E-1,8.0016804E-1,6.447487E-1,1.1460499E0,1.1656833E-1,6.0810065E-1,1.5327658E-3,7.546732E-2,1.1387022E0,1.1766034E-1,-1.8761371E-1,7.6123327E-1,1.1305469E-1,1.1720624E-1,1.6907519E-2,9.222677E-2],"categories":[],"categories_nodes":[],"categories_segments":[],"categories_sizes":[],"default_left":[0,0,0,0,0,0,0,0,0,0,0,0,0,0,0,0,0,0,0,0,0,0,0,0,0,0,0,0,0,0,0,0,0,0,0,0,0,0,0,0,0,0,0,0,0],"id":4,"left_children":[1,3,5,7,9,-1,11,13,-1,-1,15,-1,-1,17,19,21,-1,-1,23,-1,-1,25,-1,-1,27,29,-1,-1,31,-1,33,35,37,-1,39,-1,-1,41,-1,-1,43,-1,-1,-1,-1],"loss_changes":[1.7061775E5,8.568706E4,4.813828E2,7.3349062E3,2.7415078E3,0E0,3.0827446E3,6.3641406E2,0E0,0E0,1.05171875E2,0E0,0E0,8.165625E1,8.210397E2,1.6688467E3,0E0,0E0,1.4482031E2,0E0,0E0,3.6430016E1,0E0,0E0,5.473168E3,3.2435043E1,0E0,0E0,3.7773438E0,0E0,1.533284E1,9.0316486E-1,1.96875E0,0E0,6.0333595E1,0E0,0E0,1.8867188E0,0E0,0E0,1.3453529E1,0E0,0E0,0E0,0E0],"parents":[2147483647,0,0,1,1,2,2,3,3,4,4,6,6,7,7,10,10,13,13,14,14,15,15,18,18,21,21,24,24,25,25,28,28,30,30,31,31,32,32,34,34,37,37,40,40],"right_children":[2,4,6,8,10,-1,12,14,-1,-1,16,-1,-1,18,20,22,-1,-1,24,-1,-1,26,-1,-1,28,30,-1,-1,32,-1,34,36,38,-1,40,-1,-1,42,-1,-1,44,-1,-1,-1,-1],"split_conditions":[0E0,5.05E3,1.7E1,1.0008587E17,1.0001844E16,-1.985821E-1,1.0006391E17,1.0007648E17,-1.9863662E-1,1.1740213E-1,3.3036E4,1.1742448E-1,-1.9872864E-1,3.2663E4,5.8696E4,1.0004584E17,-1.9876114E-1,1.17686324E-1,8E1,-1.9831468E-1,1.17170446E-1,1.8E1,-1.9872113E-1,1.1768242E-1,1.0006612E17,1E0,-1.8054247E-1,-1.9866101E-1,3.3242E4,-1.7767178E-1,2E0,4E0,1E0,1.1656833E-1,7E0,1.5327658E-3,7.546732E-2,5.9289E4,1.1766034E-1,-1.8761371E-1,1.1E1,1.1305469E-1,1.1720624E-1,1.6907519E-2,9.222677E-2],"split_indices":[7,4,5,2,2,0,2,2,0,0,4,0,0,3,3,2,0,0,4,0,0,8,0,0,2,8,0,0,3,0,8,8,13,0,8,0,0,3,0,0,8,0,0,0,0],"split_type":[0,0,0,0,0,0,0,0,0,0,0,0,0,0,0,0,0,0,0,0,0,0,0,0,0,0,0,0,0,0,0,0,0,0,0,0,0,0,0,0,0,0,0,0,0],"sum_hessian":[1.2990625E5,1.0059891E5,2.930734E4,8.961468E4,1.0984224E4,2.6854326E4,2.4530142E3,8.886021E4,7.5447107E2,2.9308383E2,1.069114E4,3.613439E2,2.0916704E3,8.852651E4,3.337066E2,3.0457363E3,7.645404E3,4.95498E4,3.8976703E4,1.4874605E2,1.8496054E2,2.5392131E2,2.791815E3,1.9300041E4,1.9676662E4,2.4842154E2,5.4997735E0,5.7448E2,1.9102182E4,4.7498045E0,2.4367174E2,2.4182615E1,1.9078E4,8.214278E1,1.6152895E2,4.947973E0,1.9234642E1,1.5405848E4,3.6721516E3,8.99963E0,1.5252933E2,1.2403604E4,3.0022449E3,3.393883E1,1.1859049E2],"tree_param":{"num_deleted":"0","num_feature":"19","num_nodes":"45","size_leaf_vector":"1"}},{"base_weights":[1.7136359E-1,7.75571E-1,-1.7740089E0,1.0282277E0,-1.8093604E-1,-1.8083157E-1,6.0909885E-1,1.1572218E-1,9.382805E-1,1.0459636E0,-1.8020442E-1,-1.633161E0,1.1175209E0,-1.0981728E0,1.1094234E0,-1.1798258E0,-1.6866233E0,1.1268573E0,-2.4847065E-1,-3.3404195E-1,-1.665131E-1,-1.3690427E-1,1.128824E0,-1.8057457E-1,-7.394628E-1,-1.7177697E0,-1.5034137E0,-2.1520281E-1,1.1349199E0,-5.4548085E-1,1.1394315E-1,-1.7217597E-1,9.2035785E-2,-0E0,1.1349016E-1,-4.6181566E-1,-1.7856437E-1,-1.8113671E-1,-1.6320354E0,-1.8076016E-1,-1.1552345E0,-1.8024482E-1,1.1504997E-1,1.126165E0,1.15716316E-1,-4.3058088E-1,-1.7657235E-1,-1.7552094E-1,-1.4328292E-1,-6.21993E-1,-1.8119931E-1,-5.6433153E-1,-1.3788651E0,1.0722203E0,1.13350414E-1,-7.739509E-1,-2.0180894E-1,-7.4302405E-2,-1.6166799E-1,-3.7067747E-1,-1.6863531E-1,-2.9077393E-1,-1.7154746E-1,-1.2318271E0,-1.7823118E-1,-1.7917682E-1,1.1117026E0,5.2864004E-2,-8.59661E-1,6.456485E-2,-1.0866498E0,-2.2955325E-2,1.2143325E-2,-1.7748031E-1,-5.530286E-3,-1.6541676E-1,-4.6013203E-3,-8.4176496E-2,-1.4082327E-1,1.11228995E-1,-0E0,-1.72698E-1,-5.936556E-2,-2.4581863E-2,3.5596892E-2,-1.1571012E-2,-1.7618863E-1],"categories":[],"categories_nodes":[],"categories_segments":[],"categories_sizes":[],"default_left":[0,0,0,0,0,0,0,0,0,0,0,0,0,0,0,0,0,0,0,0,0,0,0,0,0,0,0,0,0,0,0,0,0,0,0,0,0,0,0,0,0,0,0,0,0,0,0,0,0,0,0,0,0,0,0,0,0,0,0,0,0,0,0,0,0,0,0,0,0,0,0,0,0,0,0,0,0,0,0,0,0,0,0,0,0,0,0],"id":5,"left_children":[1,3,5,7,-1,-1,9,-1,11,13,-1,15,17,19,21,23,25,27,29,31,-1,-1,33,-1,35,37,39,41,43,45,-1,-1,-1,-1,-1,47,-1,-1,49,-1,51,-1,-1,53,-1,55,-1,-1,57,59,-1,61,63,65,-1,67,69,71,-1,73,-1,75,-1,77,-1,-1,79,-1,81,83,85,-1,-1,-1,-1,-1,-1,-1,-1,-1,-1,-1,-1,-1,-1,-1,-1],"loss_changes":[1.4361266E5,6.088598E4,2.3684453E3,9.8327344E2,0E0,0E0,4.3163776E2,0E0,2.3063715E4,4.734607E1,0E0,7.61543E1,5.974844E2,2.1369667E0,1.6028107E1,9.280063E1,1.340918E1,5.036875E2,1.3001392E2,9.187936E0,0E0,0E0,2.7000122E0,0E0,5.7006798E1,1.6509277E1,4.238318E1,6.005269E2,6.7109375E0,3.4478966E1,0E0,0E0,0E0,0E0,0E0,6.482977E1,0E0,0E0,2.3445337E2,0E0,2.4640411E1,0E0,0E0,1.09296875E1,0E0,1.7862862E1,0E0,0E0,1.1580671E1,5.0886223E1,0E0,1.577305E1,5.570465E0,4.504038E2,0E0,1.0841785E1,3.5357437E1,3.918455E0,0E0,6.941119E1,0E0,1.3757224E1,0E0,5.172806E0,0E0,0E0,1.59375E0,0E0,1.8224785E1,1.0158751E1,2.0790684E1,0E0,0E0,0E0,0E0,0E0,0E0,0E0,0E0,0E0,0E0,0E0,0E0,0E0,0E0,0E0,0E0],"parents":[2147483647,0,0,1,1,2,2,3,3,6,6,8,8,9,9,11,11,12,12,13,13,14,14,15,15,16,16,17,17,18,18,19,19,22,22,24,24,25,25,26,26,27,27,28,28,29,29,35,35,38,38,40,40,43,43,45,45,48,48,49,49,51,51,52,52,53,53,55,55,56,56,57,57,59,59,61,61,63,63,66,66,68,68,69,69,70,70],"right_children":[2,4,6,8,-1,-1,10,-1,12,14,-1,16,18,20,22,24,26,28,30,32,-1,-1,34,-1,36,38,40,42,44,46,-1,-1,-1,-1,-1,48,-1,-1,50,-1,52,-1,-1,54,-1,56,-1,-1,58,60,-1,62,64,66,-1,68,70,72,-1,74,-1,76,-1,78,-1,-1,80,-1,82,84,86,-1,-1,-1,-1,-1,-1,-1,-1,-1,-1,-1,-1,-1,-1,-1,-1],"split_conditions":[0E0,1.0008587E17,3E0,1.0001801E17,-1.8093604E-1,-1.8083157E-1,1.0006391E17,1.1572218E-1,1.0004584E17,1.000401E13,-1.8020442E-1,2E0,1.0007648E17,1.000501E12,1E0,1E0,5E0,1.0006102E17,1E0,1.000201E12,-1.665131E-1,-1.3690427E-1,2E0,-1.8057457E-1,6.01E8,1.1E1,6.6E8,2E0,1E0,1.8E1,1.1394315E-1,-1.7217597E-1,9.2035785E-2,-0E0,1.1349016E-1,2.03E8,-1.7856437E-1,-1.8113671E-1,1.2E1,-1.8076016E-1,7.46E8,-1.8024482E-1,1.1504997E-1,2E0,1.15716316E-1,3E0,-1.7657235E-1,-1.7552094E-1,5E0,7.11E8,-1.8119931E-1,6E0,6E0,1.0006612E17,1.13350414E-1,1.2E7,5E0,3E0,-1.6166799E-1,2.61E8,-1.6863531E-1,7E0,-1.7154746E-1,8E0,-1.7823118E-1,-1.7917682E-1,2E1,5.2864004E-2,3.08E8,1.1E1,2.54E8,-2.2955325E-2,1.2143325E-2,-1.7748031E-1,-5.530286E-3,-1.6541676E-1,-4.6013203E-3,-8.4176496E-2,-1.4082327E-1,1.11228995E-1,-0E0,-1.72698E-1,-5.936556E-2,-2.4581863E-2,3.5596892E-2,-1.1571012E-2,-1.7618863E-1],"split_indices":[6,2,6,2,0,0,2,0,2,2,0,8,2,2,8,8,1,2,13,2,0,0,1,0,9,8,9,13,13,8,0,0,0,0,0,9,0,0,8,0,9,0,0,1,0,1,0,0,1,9,0,1,1,2,0,9,1,1,0,9,0,8,0,8,0,0,8,0,9,8,9,0,0,0,0,0,0,0,0,0,0,0,0,0,0,0,0],"split_type":[0,0,0,0,0,0,0,0,0,0,0,0,0,0,0,0,0,0,0,0,0,0,0,0,0,0,0,0,0,0,0,0,0,0,0,0,0,0,0,0,0,0,0,0,0,0,0,0,0,0,0,0,0,0,0,0,0,0,0,0,0,0,0,0,0,0,0,0,0,0,0,0,0,0,0,0,0,0,0,0,0,0,0,0,0,0,0],"sum_hessian":[1.2218193E5,9.3227266E4,2.8954662E4,8.4926734E4,8.300534E3,2.8544164E4,4.1049652E2,3.4885707E4,5.0041027E4,3.478803E2,6.261622E1,3.260419E3,4.6780605E4,9.547214E0,3.383331E2,3.4591718E2,2.9145017E3,4.6463766E4,3.1683936E2,4.817763E0,4.729451E0,2.227447E0,3.3610565E2,1.4192212E2,2.0399506E2,2.4863533E3,4.2814862E2,2.7673276E2,4.6187035E4,2.6158157E2,5.5257786E1,2.6658165E0,2.1519463E0,1.4938139E0,3.3461185E2,1.6196645E2,4.2028603E1,1.1830929E3,1.3032603E3,2.2697717E2,2.0117145E2,1.2832419E2,1.4840857E2,3.317451E4,1.3012524E4,2.398193E2,2.176226E1,3.1385807E1,1.3058064E2,1.9792593E2,1.1053342E3,5.6459442E1,1.44712E2,3.9891853E3,2.9185324E4,9.414434E1,1.4567497E2,1.2538897E2,5.191674E0,1.608789E2,3.704702E1,4.6320534E1,1.0138908E1,1.0787509E2,3.6836918E1,5.3901653E1,3.9352834E3,5.091922E0,8.9052414E1,1.1109932E2,3.4575653E1,7.277515E1,5.2613827E1,2.8925339E1,1.3195357E2,6.4281435E0,3.9892387E1,3.535905E1,7.251604E1,3.932417E3,2.866658E0,2.001935E1,6.9033066E1,5.2136E1,5.8963318E1,1.4789877E1,1.9785774E1],"tree_param":{"num_deleted":"0","num_feature":"19","num_nodes":"87","size_leaf_vector":"1"}},{"base_weights":[1.6671628E-1,7.5715613E-1,-1.6434422E0,1.0791242E0,-1.5566888E0,-1.1445143E0,-1.674449E-1,1.1023253E0,-1.7659758E-1,-4.37534E-1,-1.6776209E-1,-1.6697094E-1,1.1379775E-1,-1.7152284E-1,1.1056579E0,-1.6751061E-1,1.047689E0,1.1082883E0,-1.6621031E-1,1.1454736E0,-1.7636351E-1,1.1404105E-1,1.0344124E0,1.1493512E-1,-0E0,-1.7646536E-1,1.1400112E-1],"categories":[],"categories_nodes":[],"categories_segments":[],"categories_sizes":[],"default_left":[0,0,0,0,0,0,0,0,0,0,0,0,0,0,0,0,0,0,0,0,0,0,0,0,0,0,0],"id":6,"left_children":[1,3,5,7,9,11,-1,13,-1,15,-1,-1,-1,-1,17,-1,19,21,-1,23,-1,-1,25,-1,-1,-1,-1],"loss_changes":[1.2248141E5,6.4376016E4,4.3322656E2,5.0066797E3,1.4264316E3,1.9797402E3,0E0,7.0591406E2,0E0,1.8940798E3,0E0,0E0,0E0,0E0,5.466172E2,0E0,1.2799591E2,1.7601562E2,0E0,2.656067E0,0E0,0E0,6.727828E3,0E0,0E0,0E0,0E0],"parents":[2147483647,0,0,1,1,2,2,3,3,4,4,5,5,7,7,9,9,14,14,16,16,17,17,19,19,22,22],"right_children":[2,4,6,8,10,12,-1,14,-1,16,-1,-1,-1,-1,18,-1,20,22,-1,24,-1,-1,26,-1,-1,-1,-1],"split_conditions":[0E0,5.05E3,1.7339133E9,1.7339994E9,1.7339142E9,1.7339131E9,-1.674449E-1,1.7339131E9,-1.7659758E-1,1.7339131E9,-1.6776209E-1,-1.6697094E-1,1.1379775E-1,-1.7152284E-1,6E0,-1.6751061E-1,3.3036E4,1.7339142E9,-1.6621031E-1,7.7777776E-7,-1.7636351E-1,1.1404105E-1,1.733999E9,1.1493512E-1,-0E0,-1.7646536E-1,1.1400112E-1],"split_indices":[7,4,0,0,0,0,0,0,0,0,0,0,0,0,1,0,4,0,0,16,0,0,0,0,0,0,0],"split_type":[0,0,0,0,0,0,0,0,0,0,0,0,0,0,0,0,0,0,0,0,0,0,0,0,0,0,0],"sum_hessian":[1.14599055E5,8.641323E4,2.8185828E4,7.585812E4,1.0555112E4,1.6510555E3,2.6534771E4,7.524487E4,6.132512E2,1.0301305E3,9.524981E3,1.3425715E3,3.084839E2,8.8538765E1,7.515633E4,5.6228015E2,4.678504E2,7.508533E4,7.099766E1,4.524682E2,1.5382231E1,5.2321613E4,2.2763713E4,4.5143097E2,1.037205E0,8.2722833E2,2.1936484E4],"tree_param":{"num_deleted":"0","num_feature":"19","num_nodes":"27","size_leaf_vector":"1"}},{"base_weights":[1.636717E-1,7.431846E-1,-1.5422899E0,1.0632712E0,-1.462507E0,-1.5702598E-1,6.017492E-1,1.0959169E0,-1.1563008E0,1.120939E-1,-1.5219344E0,1.056136E0,-1.5072778E-1,1.1065873E0,-1.7344664E0,-1.5755086E-1,1.1302352E-1,-8.8821024E-1,-1.5730093E-1,-1.5283744E-1,1.1224164E-1,-1.6350979E-1,1.1082855E0,-1.5864088E-1,-2.0227583E-1,-1.5706734E-1,9.266857E-1,1.1252349E-1,1.0688075E0,1.1373008E0,-1.6259532E-1,-1.7072295E0,1.1249179E-1,1.1418591E-1,-0E0,-1.6079609E-1,-2.0264952E-1],"categories":[],"categories_nodes":[],"categories_segments":[],"categories_sizes":[],"default_left":[0,0,0,0,0,0,0,0,0,0,0,0,0,0,0,0,0,0,0,0,0,0,0,0,0,0,0,0,0,0,0,0,0,0,0,0,0],"id":7,"left_children":[1,3,5,7,9,-1,11,13,15,-1,17,19,-1,21,23,-1,-1,25,-1,-1,-1,-1,27,-1,-1,-1,29,-1,31,33,-1,35,-1,-1,-1,-1,-1],"loss_changes":[1.0551963E5,5.624819E4,1.6239297E3,5.0412812E3,1.5504336E3,0E0,3.33088E2,2.0701797E3,9.66682E2,0E0,3.1698828E2,4.871396E1,0E0,3.1754688E2,7.36792E0,0E0,0E0,9.1419135E2,0E0,0E0,0E0,0E0,4.3484375E1,0E0,0E0,0E0,1.0765817E2,0E0,3.1962383E3,6.2997437E-1,0E0,9.241089E0,0E0,0E0,0E0,0E0,0E0],"parents":[2147483647,0,0,1,1,2,2,3,3,4,4,6,6,7,7,8,8,10,10,11,11,13,13,14,14,17,17,22,22,26,26,28,28,29,29,31,31],"right_children":[2,4,6,8,10,-1,12,14,16,-1,18,20,-1,22,24,-1,-1,26,-1,-1,-1,-1,28,-1,-1,-1,30,-1,32,34,-1,36,-1,-1,-1,-1,-1],"split_conditions":[0E0,5.05E3,3E0,1.0007648E17,1.0001844E16,-1.5702598E-1,1.7339133E9,1.7339994E9,6.1074E4,1.120939E-1,1.7339142E9,1.7339068E9,-1.5072778E-1,1.7339131E9,1.0006612E17,-1.5755086E-1,1.1302352E-1,1.7339131E9,-1.5730093E-1,-1.5283744E-1,1.1224164E-1,-1.6350979E-1,1.7339142E9,-1.5864088E-1,-2.0227583E-1,-1.5706734E-1,3.3036E4,1.1252349E-1,1.733999E9,4.5508983E-8,-1.6259532E-1,1.0006612E17,1.1249179E-1,1.1418591E-1,-0E0,-1.6079609E-1,-2.0264952E-1],"split_indices":[6,4,6,2,2,0,0,0,3,0,0,0,0,0,2,0,0,0,0,0,0,0,0,0,0,0,4,0,0,16,0,2,0,0,0,0,0],"split_type":[0,0,0,0,0,0,0,0,0,0,0,0,0,0,0,0,0,0,0,0,0,0,0,0,0,0,0,0,0,0,0,0,0,0,0,0,0],"sum_hessian":[1.0673434E5,7.967085E4,2.7063498E4,6.957473E4,1.0096121E4,2.671545E4,3.4804788E2,6.8566695E4,1.008036E3,2.2664186E2,9.8694795E3,2.8674356E2,6.130433E1,6.830952E4,2.5717136E2,8.52228E2,1.5580801E2,7.3756476E2,9.131915E3,6.7924986E0,2.7995105E2,4.1922787E1,6.82676E4,1.7220236E2,8.496899E1,5.3640796E2,2.011568E2,4.774416E4,2.052344E4,1.8618652E2,1.4970276E1,4.0625635E2,2.0117184E4,1.8518619E2,1.0003362E0,3.122892E2,9.3967125E1],"tree_param":{"num_deleted":"0","num_feature":"19","num_nodes":"37","size_leaf_vector":"1"}},{"base_weights":[1.6006877E-1,7.308095E-1,-1.4611199E0,1.0492048E0,-1.3864216E0,-1.4870442E-1,5.511829E-1,1.0816135E0,-1.1110903E0,1.107306E-1,-1.4421427E0,1.0286038E0,-1.4869803E-1,1.1117151E-1,1.0436075E0,-1.4914876E-1,1.1147504E-1,-1.3206552E0,-1.4899531E-1,-9.861442E-1,1.11031525E-1,1.1117033E-1,9.7753453E-1,6.7901814E-1,-1.4879146E-1,-2.3597303E-1,-1.3641861E-1,-1.5149592E-1,1.070796E0,-1.4260168E-1,7.623286E-1,-1.3041775E-1,7.862629E-2,3.7988043E-1,1.0717297E0,1.1152023E-1,6.09174E-1,9.0311706E-2,1.516455E-1,1.062285E0,1.1112803E-1,6.8350554E-1,-6.8725955E-1,-1.20711155E-1,5.330893E-2,1.0515107E0,1.106707E-1,-0E0,7.207162E-1,-1.336187E-1,1.8233163E-2,7.3039928E-3,-5.993548E-2,1.0542395E-1,4.1532684E-2,-1.1981324E-1,7.87943E-2,8.4104724E-2,4.566006E-2],"categories":[],"categories_nodes":[],"categories_segments":[],"categories_sizes":[],"default_left":[0,0,0,0,0,0,0,0,0,0,0,0,0,0,0,0,0,0,0,0,0,0,0,0,0,0,0,0,0,0,0,0,0,0,0,0,0,0,0,0,0,0,0,0,0,0,0,0,0,0,0,0,0,0,0,0,0,0,0],"id":8,"left_children":[1,3,5,7,9,-1,11,13,15,-1,17,19,-1,-1,21,-1,-1,23,-1,25,-1,-1,27,29,-1,31,-1,-1,33,-1,35,-1,-1,37,39,-1,41,-1,43,45,-1,47,49,51,-1,53,-1,55,57,-1,-1,-1,-1,-1,-1,-1,-1,-1,-1],"loss_changes":[9.175034E4,4.9440207E4,1.3478633E3,4.4635625E3,1.3324883E3,0E0,3.1861472E2,6.9703125E1,7.978435E2,0E0,5.1660156E1,4.3927002E1,0E0,0E0,1.2288281E2,0E0,0E0,8.885669E2,0E0,1.2055683E0,0E0,0E0,3.2782617E3,3.5184692E1,0E0,5.1057053E0,0E0,0E0,7.3203125E0,0E0,8.927139E0,0E0,0E0,1.3089731E0,2.8964844E0,0E0,1.3431015E1,0E0,1.9823931E0,3.0976562E0,0E0,2.9501648E0,5.008257E0,1.2021389E0,0E0,1.390332E1,0E0,6.9891005E0,2.6726685E0,0E0,0E0,0E0,0E0,0E0,0E0,0E0,0E0,0E0,0E0],"parents":[2147483647,0,0,1,1,2,2,3,3,4,4,6,6,7,7,8,8,10,10,11,11,14,14,17,17,19,19,22,22,23,23,25,25,28,28,30,30,33,33,34,34,36,36,38,38,39,39,41,41,42,42,43,43,45,45,47,47,48,48],"right_children":[2,4,6,8,10,-1,12,14,16,-1,18,20,-1,-1,22,-1,-1,24,-1,26,-1,-1,28,30,-1,32,-1,-1,34,-1,36,-1,-1,38,40,-1,42,-1,44,46,-1,48,50,52,-1,54,-1,56,58,-1,-1,-1,-1,-1,-1,-1,-1,-1,-1],"split_conditions":[0E0,5.05E3,3E0,1.0007648E17,1.0001844E16,-1.4870442E-1,8E1,3.2663E4,6.1074E4,1.107306E-1,3.3036E4,1.000401E13,-1.4869803E-1,1.1117151E-1,8E1,-1.4914876E-1,1.1147504E-1,1.0004584E17,-1.4899531E-1,1.000501E12,1.11031525E-1,1.1117033E-1,1.0006612E17,1.91E8,-1.4879146E-1,1.000201E12,-1.3641861E-1,-1.5149592E-1,3.3242E4,-1.4260168E-1,3.0941E4,-1.3041775E-1,7.862629E-2,1.87E8,1E0,1.1152023E-1,8.28E8,9.0311706E-2,5.49E8,5.9289E4,1.1112803E-1,2.57E8,5E0,2.93E8,5.330893E-2,5.8696E4,1.106707E-1,4E0,5.85E8,-1.336187E-1,1.8233163E-2,7.3039928E-3,-5.993548E-2,1.0542395E-1,4.1532684E-2,-1.1981324E-1,7.87943E-2,8.4104724E-2,4.566006E-2],"split_indices":[6,4,6,2,2,0,4,3,3,0,4,2,0,0,4,0,0,2,0,2,0,0,2,9,0,2,0,0,3,0,4,0,0,9,13,0,9,0,9,3,0,9,1,9,0,3,0,1,9,0,0,0,0,0,0,0,0,0,0],"split_type":[0,0,0,0,0,0,0,0,0,0,0,0,0,0,0,0,0,0,0,0,0,0,0,0,0,0,0,0,0,0,0,0,0,0,0,0,0,0,0,0,0,0,0,0,0,0,0,0,0,0,0,0,0,0,0,0,0,0,0],"sum_hessian":[9.91605E4,7.3341266E4,2.5819234E4,6.3754203E4,9.587066E3,2.5491328E4,3.2790634E2,6.281235E4,9.418483E2,2.0914395E2,9.377923E3,2.6607205E2,6.183428E1,3.503648E4,2.7775873E4,8.047631E2,1.3708519E2,2.6542695E3,6.723653E3,9.893397E0,2.5617868E2,1.3671099E4,1.4104773E4,2.0441399E2,2.4498555E3,4.2014394E0,5.6919584E0,5.0833606E2,1.35964375E4,7.3250895E0,1.970889E2,2.5328934E0,1.6685461E0,1.9793318E1,1.3576644E4,5.7674786E1,1.3941411E2,4.680852E0,1.5112467E1,1.0979913E4,2.5967312E3,1.3258371E2,6.8303943E0,7.2874784E0,7.8249884E0,8.854763E3,2.1251504E3,7.657604E0,1.2492611E2,4.5700135E0,2.2603805E0,3.7003639E0,3.5871143E0,8.815378E3,3.9384636E1,2.7432618E0,4.9143424E0,8.322334E1,4.170276E1],"tree_param":{"num_deleted":"0","num_feature":"19","num_nodes":"59","size_leaf_vector":"1"}},{"base_weights":[1.573659E-1,7.1842813E-1,-1.3952557E0,1.0366794E0,-1.3252575E0,-1.4195712E-1,5.3994936E-1,1.0690655E0,-1.055973E0,1.0950549E-1,-1.3768288E0,1.0128996E0,-1.4176403E-1,1.0807194E0,-1.6028653E0,-1.423083E-1,1.1017007E-1,-8.007189E-1,-1.422172E-1,-9.0963614E-1,1.09807946E-1,-1.4820364E-1,1.0823644E0,-1.4284714E-1,-1.9180284E-1,-1.4195088E-1,9.01263E-1,-0E0,-1.2256485E-1,1.1002435E-1,1.0407046E0,1.1041992E0,-1.4277588E-1,-1.5615427E0,1.0998627E-1,1.1145456E-1,-0E0,-1.4432244E-1,-1.9282831E-1],"categories":[],"categories_nodes":[],"categories_segments":[],"categories_sizes":[],"default_left":[0,0,0,0,0,0,0,0,0,0,0,0,0,0,0,0,0,0,0,0,0,0,0,0,0,0,0,0,0,0,0,0,0,0,0,0,0,0,0],"id":9,"left_children":[1,3,5,7,9,-1,11,13,15,-1,17,19,-1,21,23,-1,-1,25,-1,27,-1,-1,29,-1,-1,-1,31,-1,-1,-1,33,35,-1,37,-1,-1,-1,-1,-1],"loss_changes":[8.007864E4,4.391914E4,1.1490781E3,3.9598398E3,1.1359004E3,0E0,2.79457E2,1.7911328E3,7.052811E2,0E0,2.3049805E2,4.0124878E1,0E0,2.4110938E2,1.0366455E1,0E0,0E0,6.867865E2,0E0,3.6645145E0,0E0,0E0,4.05E1,0E0,0E0,0E0,8.159097E1,0E0,0E0,0E0,2.6487812E3,2.340805E0,0E0,1.3210876E1,0E0,0E0,0E0,0E0,0E0],"parents":[2147483647,0,0,1,1,2,2,3,3,4,4,6,6,7,7,8,8,10,10,11,11,13,13,14,14,17,17,19,19,22,22,26,26,30,30,31,31,33,33],"right_children":[2,4,6,8,10,-1,12,14,16,-1,18,20,-1,22,24,-1,-1,26,-1,28,-1,-1,30,-1,-1,-1,32,-1,-1,-1,34,36,-1,38,-1,-1,-1,-1,-1],"split_conditions":[0E0,5.05E3,3E0,1.0007648E17,1.0001844E16,-1.4195712E-1,8E1,1.7339994E9,6.1074E4,1.0950549E-1,1.7339142E9,1.000401E13,-1.4176403E-1,1.7339131E9,1.0006612E17,-1.423083E-1,1.1017007E-1,1.7339131E9,-1.422172E-1,1.7339133E9,1.09807946E-1,-1.4820364E-1,1.7339142E9,-1.4284714E-1,-1.9180284E-1,-1.4195088E-1,3.3036E4,-0E0,-1.2256485E-1,1.1002435E-1,1.733999E9,1.1E1,-1.4277588E-1,1.0006612E17,1.0998627E-1,1.1145456E-1,-0E0,-1.4432244E-1,-1.9282831E-1],"split_indices":[6,4,6,2,2,0,4,0,3,0,0,2,0,0,2,0,0,0,0,0,0,0,0,0,0,0,4,0,0,0,0,15,0,2,0,0,0,0,0],"split_type":[0,0,0,0,0,0,0,0,0,0,0,0,0,0,0,0,0,0,0,0,0,0,0,0,0,0,0,0,0,0,0,0,0,0,0,0,0,0,0],"sum_hessian":[9.192714E4,6.752621E4,2.4400926E4,5.8428043E4,9.09817E3,2.4098648E4,3.022779E2,5.7538055E4,8.899849E2,1.8941151E2,8.908759E3,2.4387013E2,5.8407764E1,5.728856E4,2.4949632E2,7.60975E2,1.2900995E2,6.5162213E2,8.257137E3,9.848408E0,2.3402173E2,3.6360348E1,5.72522E4,1.6266139E2,8.683493E1,4.7831033E2,1.733118E2,1.9843771E0,7.864031E0,4.0043043E4,1.7209158E4,1.5981583E2,1.3495968E1,3.8215167E2,1.6827008E4,1.587468E2,1.0690322E0,2.909965E2,9.1155174E1],"tree_param":{"num_deleted":"0","num_feature":"19","num_nodes":"39","size_leaf_vector":"1"}},{"base_weights":[1.5424816E-1,7.086769E-1,-1.3407588E0,1.0257779E0,-1.273497E0,-9.6694285E-1,-1.3643454E-1,1.0584298E0,-1.0284599E0,1.08413555E-1,-1.3223101E0,-1.3594884E-1,6.764609E-1,1.0701425E0,-1.5156425E0,4.623322E-1,-1.3665359E-1,-7.653379E-1,-1.366108E-1,1.0857514E-1,-1.027808E0,-1.4064567E-1,1.0718237E0,-1.3708994E-1,-1.756904E-1,-1.3442183E-1,1.0891972E-1,-1.3636284E-1,8.785434E-1,-1.3441592E-1,3.418297E-1,1.0897883E-1,1.0299875E0,1.0847894E0,-1.377403E-1,-1.4821209E0,1.08944975E-1,1.1014368E-1,-2.6160104E-2,-1.3847679E-1,-1.7639105E-1],"categories":[],"categories_nodes":[],"categories_segments":[],"categories_sizes":[],"default_left":[0,0,0,0,0,0,0,0,0,0,0,0,0,0,0,0,0,0,0,0,0,0,0,0,0,0,0,0,0,0,0,0,0,0,0,0,0,0,0,0,0],"id":10,"left_children":[1,3,5,7,9,11,-1,13,15,-1,17,-1,19,21,23,25,-1,27,-1,-1,29,-1,31,-1,-1,-1,-1,-1,33,-1,-1,-1,35,37,-1,39,-1,-1,-1,-1,-1],"loss_changes":[7.029488E4,3.8885508E4,1.9995312E2,3.5773945E3,9.8209375E2,8.807401E2,0E0,1.5824102E3,4.2123895E2,0E0,2.0178223E2,0E0,1.8318707E2,2.1726562E2,5.163208E0,1.7371606E2,0E0,6.0147833E2,0E0,0E0,6.87683E1,0E0,3.7128906E1,0E0,0E0,0E0,0E0,0E0,7.5365425E1,0E0,0E0,0E0,2.345748E3,4.1883087E0,0E0,6.803711E0,0E0,0E0,0E0,0E0,0E0],"parents":[2147483647,0,0,1,1,2,2,3,3,4,4,5,5,7,7,8,8,10,10,12,12,13,13,14,14,15,15,17,17,20,20,22,22,28,28,32,32,33,33,35,35],"right_children":[2,4,6,8,10,12,-1,14,16,-1,18,-1,20,22,24,26,-1,28,-1,-1,30,-1,32,-1,-1,-1,-1,-1,34,-1,-1,-1,36,38,-1,40,-1,-1,-1,-1,-1],"split_conditions":[0E0,5.05E3,1.7339142E9,1.0007648E17,1.0001844E16,1.7339131E9,-1.3643454E-1,1.7339994E9,1.7339142E9,1.08413555E-1,1.7339142E9,-1.3594884E-1,1.7339133E9,1.7339131E9,1.0006612E17,1.7339131E9,-1.3665359E-1,1.7339131E9,-1.366108E-1,1.0857514E-1,1.70382E5,-1.4064567E-1,1.7339142E9,-1.3708994E-1,-1.756904E-1,-1.3442183E-1,1.0891972E-1,-1.3636284E-1,3.3036E4,-1.3441592E-1,3.418297E-1,1.0897883E-1,1.733999E9,3.2E1,-1.377403E-1,1.0006612E17,1.08944975E-1,1.1014368E-1,-2.6160104E-2,-1.3847679E-1,-1.7639105E-1],"split_indices":[7,4,0,2,2,0,0,0,0,0,0,0,0,0,2,0,0,0,0,0,13,0,0,0,0,0,0,0,4,0,0,0,0,13,0,2,0,0,0,0,0],"split_type":[0,0,0,0,0,0,0,0,0,0,0,0,0,0,0,0,0,0,0,0,0,0,0,0,0,0,0,0,0,0,0,0,0,0,0,0,0,0,0,0,0],"sum_hessian":[8.480837E4,6.186586E4,2.2942506E4,5.3334156E4,8.531703E3,1.364195E3,2.1578312E4,5.250016E4,8.3399603E2,1.7264418E2,8.35906E3,1.1016595E3,2.625353E2,5.226274E4,2.3742197E2,1.5362183E2,6.803742E2,6.1106464E2,7.7479946E3,2.1216853E2,5.0366787E1,3.5049107E1,5.2227688E4,1.5098463E2,8.643733E1,3.9163124E1,1.144587E2,4.4845706E2,1.6260757E2,4.7231094E1,3.1356921E0,3.6521406E4,1.5706283E4,1.4939287E2,1.3214712E1,3.627871E2,1.5343496E4,1.4830193E2,1.0909411E0,2.7227124E2,9.051586E1],"tree_param":{"num_deleted":"0","num_feature":"19","num_nodes":"41","size_leaf_vector":"1"}},{"base_weights":[1.5238298E-1,6.99816E-1,-1.2949264E0,1.0157144E0,-1.2305733E0,-1.3168011E0,5.284398E-1,1.0483863E0,-9.9033123E-1,1.0743666E-1,-1.2773794E0,-1.3176678E-1,-1.1360995E0,9.9936193E-1,-1.3090569E-1,1.0802728E-1,1.0110192E0,-1.612465E-1,-1.3139884E-1,-1.1689218E0,-1.3193989E-1,3.0776295E-1,-1.3090123E-1,-7.996959E-2,1.0778632E-1,8.3084726E-1,1.0531806E0,-3.8665175E-1,1.0508788E-1,6.471032E-1,-1.3180836E-1,1.08001225E-1,-1.3331783E-1,1.0802803E-1,1.034543E0,-3.0180144E-1,-1.2531327E-1,-1.212123E-1,7.2452927E-1,1.024064E0,1.0797633E-1,-2.0882076E-1,-8.105184E-1,-1.1533693E-1,7.801858E-1,1.0130066E0,1.0743828E-1,-5.407814E-1,8.158727E-2,-4.7470123E-2,-1.2506108E-1,8.1220144E-1,-9.16337E-2,1.013957E0,4.9841493E-1,4.3592356E-2,-6.135666E-1,-4.4731304E-1,1.8819016E-1,-1.07840076E-1,3.3396772E-1,1.0730066E-1,6.7409885E-1,9.726904E-2,1.02340974E-1,8.9962736E-2,-1.21712424E-1,-1.2203536E-1,-4.2295065E-2,-1.2440663E-1,8.259665E-2,2.5486315E-2,-1.0120131E-1,5.7839137E-2,-0E0,-1.1342304E-1,7.604563E-2],"categories":[],"categories_nodes":[],"categories_segments":[],"categories_sizes":[],"default_left":[0,0,0,0,0,0,0,0,0,0,0,0,0,0,0,0,0,0,0,0,0,0,0,0,0,0,0,0,0,0,0,0,0,0,0,0,0,0,0,0,0,0,0,0,0,0,0,0,0,0,0,0,0,0,0,0,0,0,0,0,0,0,0,0,0,0,0,0,0,0,0,0,0,0,0,0,0],"id":11,"left_children":[1,3,5,7,9,11,13,15,17,-1,19,-1,21,23,-1,-1,25,27,-1,29,-1,-1,-1,-1,-1,31,33,35,-1,37,-1,-1,-1,-1,39,41,-1,-1,43,45,-1,47,49,-1,51,53,-1,55,57,59,-1,61,-1,63,65,-1,67,69,71,-1,73,-1,75,-1,-1,-1,-1,-1,-1,-1,-1,-1,-1,-1,-1,-1,-1],"loss_changes":[6.1883914E4,3.4558727E4,8.557383E2,3.192086E3,8.599834E2,8.6328125E-1,2.1910344E2,5.5007812E1,2.0782996E2,0E0,3.3109375E1,0E0,7.5911606E1,2.884433E1,0E0,0E0,1.6583594E2,5.9408466E1,0E0,5.933225E2,0E0,0E0,0E0,0E0,0E0,2.2597727E3,6.921875E0,1.2126598E1,0E0,2.334439E1,0E0,0E0,0E0,0E0,2.9296875E0,7.0475082E0,0E0,0E0,1.6292336E1,2.71875E0,0E0,1.4519836E1,6.9938564E0,0E0,8.335335E0,1.9604492E0,0E0,5.1299915E0,4.0365157E0,4.6230097E0,0E0,3.76651E0,0E0,7.675781E-1,1.0026581E1,0E0,5.965597E0,1.1787079E1,4.442713E0,0E0,8.8476276E-1,0E0,1.5647015E1,0E0,0E0,0E0,0E0,0E0,0E0,0E0,0E0,0E0,0E0,0E0,0E0,0E0,0E0],"parents":[2147483647,0,0,1,1,2,2,3,3,4,4,5,5,6,6,7,7,8,8,10,10,12,12,13,13,16,16,17,17,19,19,25,25,26,26,27,27,29,29,34,34,35,35,38,38,39,39,41,41,42,42,44,44,45,45,47,47,48,48,49,49,51,51,53,53,54,54,56,56,57,57,58,58,60,60,62,62],"right_children":[2,4,6,8,10,12,14,16,18,-1,20,-1,22,24,-1,-1,26,28,-1,30,-1,-1,-1,-1,-1,32,34,36,-1,38,-1,-1,-1,-1,40,42,-1,-1,44,46,-1,48,50,-1,52,54,-1,56,58,60,-1,62,-1,64,66,-1,68,70,72,-1,74,-1,76,-1,-1,-1,-1,-1,-1,-1,-1,-1,-1,-1,-1,-1,-1],"split_conditions":[0E0,5.05E3,3E0,1.0007648E17,1.0001844E16,4.98977E5,8E1,8E1,1.0008587E17,1.0743666E-1,3.3036E4,-1.3176678E-1,1.0001266E15,1.000401E13,-1.3090569E-1,1.0802728E-1,1.0006612E17,1E0,-1.3139884E-1,1.0004584E17,-1.3193989E-1,3.0776295E-1,-1.3090123E-1,-7.996959E-2,1.0778632E-1,1.0001102E17,1.0007317E17,1.8E1,1.0508788E-1,1.91E8,-1.3180836E-1,1.08001225E-1,-1.3331783E-1,1.0802803E-1,1E0,5E0,-1.2531327E-1,-1.212123E-1,1E0,1.0007598E17,1.0797633E-1,3E0,2.54E8,-1.1533693E-1,1.8E1,2E1,1.0743828E-1,1.2E7,1.3E8,1.64E8,-1.2506108E-1,2E0,-9.16337E-2,2E0,6.2E7,4.3592356E-2,3.08E8,1.6E1,1.7E1,-1.07840076E-1,2.3E8,1.0730066E-1,7E0,9.726904E-2,1.02340974E-1,8.9962736E-2,-1.21712424E-1,-1.2203536E-1,-4.2295065E-2,-1.2440663E-1,8.259665E-2,2.5486315E-2,-1.0120131E-1,5.7839137E-2,-0E0,-1.1342304E-1,7.604563E-2],"split_indices":[6,4,6,2,2,13,4,4,2,0,4,0,2,2,0,0,2,13,0,2,0,0,0,0,0,2,2,8,0,9,0,0,0,0,13,1,0,0,8,2,0,1,9,0,8,8,0,9,9,9,0,8,0,1,9,0,9,8,8,0,9,0,8,0,0,0,0,0,0,0,0,0,0,0,0,0,0],"split_type":[0,0,0,0,0,0,0,0,0,0,0,0,0,0,0,0,0,0,0,0,0,0,0,0,0,0,0,0,0,0,0,0,0,0,0,0,0,0,0,0,0,0,0,0,0,0,0,0,0,0,0,0,0,0,0,0,0,0,0,0,0,0,0,0,0,0,0,0,0,0,0,0,0,0,0,0,0],"sum_hessian":[7.810694E4,5.667193E4,2.1435006E4,4.8702527E4,7.9694043E3,2.1181443E4,2.5356361E2,4.7922523E4,7.800015E2,1.5818732E2,7.8112173E3,2.1074828E4,1.0661461E2,2.0226932E2,5.1294292E1,2.5843055E4,2.2079469E4,2.198698E2,5.601317E2,2.187864E3,5.623353E3,3.9745734E0,1.0264004E2,7.924333E0,1.9434499E2,4.1914478E3,1.7888021E4,1.8608977E2,3.3780018E1,1.6555446E2,2.0223096E3,3.7590898E3,4.3235797E2,7.267334E3,1.06206875E4,1.7054338E2,1.5546398E1,6.1024027E0,1.5945206E2,8.640494E3,1.9801932E3,1.4585117E2,2.4692207E1,4.072577E0,1.5537947E2,7.100154E3,1.540341E3,6.966345E1,7.618771E1,9.863231E0,1.4828976E1,1.530801E2,2.2993832E0,7.085125E3,1.50285425E1,3.878519E0,6.5784935E1,1.1206599E1,6.498112E1,3.3717897E0,6.4914412E0,5.0489773E1,1.0259032E2,1.3402E3,5.7449253E3,1.26524315E1,2.3761113E0,1.4471549E1,5.1313385E1,7.3762765E0,3.8303232E0,6.235064E1,2.6304743E0,4.8089867E0,1.6824546E0,4.148148E0,9.844217E1],"tree_param":{"num_deleted":"0","num_feature":"19","num_nodes":"77","size_leaf_vector":"1"}},{"base_weights":[1.5100914E-1,6.9238E-1,-1.256201E0,1.0069264E0,-1.194138E0,-9.046026E-1,-1.278018E-1,1.0314399E0,-1.3602221E-1,-3.2936442E-1,-1.2801354E-1,-1.2697209E0,6.625743E-1,-1.3089816E-1,1.0350008E0,-1.2771998E-1,9.6921945E-1,-1.2748043E-1,-6.541565E-1,1.0676509E-1,-1.0573016E0,1.07240096E-1,9.498838E-1,1.0676528E0,-1.2599544E-1,2.5327787E-1,-1.1601865E-1,-1.2295053E-1,1.9943225E-1,-1.3470906E-1,1.07197694E-1,1.0764062E-1,-2.1897268E-2],"categories":[],"categories_nodes":[],"categories_segments":[],"categories_sizes":[],"default_left":[0,0,0,0,0,0,0,0,0,0,0,0,0,0,0,0,0,0,0,0,0,0,0,0,0,0,0,0,0,0,0,0,0],"id":12,"left_children":[1,3,5,7,9,11,-1,13,-1,15,-1,17,19,-1,21,-1,23,-1,25,-1,27,-1,29,31,-1,-1,-1,-1,-1,-1,-1,-1,-1],"loss_changes":[5.475975E4,3.0803488E4,1.5100586E2,2.5814531E3,5.5004785E2,6.697632E2,0E0,3.6673438E2,0E0,8.274389E2,0E0,1.0406494E0,1.5359645E2,0E0,1.3795312E2,0E0,6.192569E1,0E0,1.3760285E1,0E0,2.1071949E1,0E0,3.7663398E3,3.9157104E0,0E0,0E0,0E0,0E0,0E0,0E0,0E0,0E0,0E0],"parents":[2147483647,0,0,1,1,2,2,3,3,4,4,5,5,7,7,9,9,11,11,12,12,14,14,16,16,18,18,20,20,22,22,23,23],"right_children":[2,4,6,8,10,12,-1,14,-1,16,-1,18,20,-1,22,-1,24,-1,26,-1,28,-1,30,32,-1,-1,-1,-1,-1,-1,-1,-1,-1],"split_conditions":[0E0,5.05E3,1.7339142E9,1.7339994E9,1.7339142E9,1.7339131E9,-1.278018E-1,1.7339131E9,-1.3602221E-1,1.7339131E9,-1.2801354E-1,4.8123332E4,1.7339133E9,-1.3089816E-1,1.7339142E9,-1.2771998E-1,3.3036E4,-1.2748043E-1,8E1,1.0676509E-1,1.914325E4,1.07240096E-1,1.733999E9,1.16E-4,-1.2599544E-1,2.5327787E-1,-1.1601865E-1,-1.2295053E-1,1.9943225E-1,-1.3470906E-1,1.07197694E-1,1.0764062E-1,-2.1897268E-2],"split_indices":[7,4,0,0,0,0,0,0,0,0,0,15,0,0,0,0,4,0,3,0,15,0,0,18,0,0,0,0,0,0,0,0,0],"split_type":[0,0,0,0,0,0,0,0,0,0,0,0,0,0,0,0,0,0,0,0,0,0,0,0,0,0,0,0,0,0,0,0,0],"sum_hessian":[7.1880664E4,5.19107E4,1.9969967E4,4.4492777E4,7.417922E3,1.1694342E3,1.8800531E4,4.4037164E4,4.5561273E2,6.7200323E2,6.7459185E3,9.4898035E2,2.2045381E2,6.6473236E1,4.397069E4,3.8890894E2,2.8309427E2,9.395967E2,9.383655E0,1.7889961E2,4.1554188E1,3.0539826E4,1.3430864E4,2.7155197E2,1.154229E1,1.015014E0,8.368641E0,3.9644722E1,1.9094645E0,6.774576E2,1.2753406E4,2.7048898E2,1.0629956E0],"tree_param":{"num_deleted":"0","num_feature":"19","num_nodes":"33","size_leaf_vector":"1"}},{"base_weights":[1.4989337E-1,6.852052E-1,-1.2230686E0,9.9929035E-1,-1.162518E0,-1.243796E-1,5.2824414E-1,1.023921E0,-1.3179477E-1,-3.081517E-1,-1.2464547E-1,9.847736E-1,-1.2312789E-1,-1.2782232E-1,1.0275221E0,-1.24343514E-1,9.754684E-1,-6.7435575E-1,1.062418E-1,1.0300571E0,-1.22192994E-1,1.0679286E-1,-1.2004089E-1,-0E0,-9.387739E-2,1.0650257E-1,9.503297E-1,-1.3092788E-1,1.0646447E-1],"categories":[],"categories_nodes":[],"categories_segments":[],"categories_sizes":[],"default_left":[0,0,0,0,0,0,0,0,0,0,0,0,0,0,0,0,0,0,0,0,0,0,0,0,0,0,0,0,0],"id":13,"left_children":[1,3,5,7,9,-1,11,13,-1,15,-1,17,-1,-1,19,-1,21,23,-1,25,-1,-1,-1,-1,-1,-1,27,-1,-1],"loss_changes":[4.846764E4,2.7535674E4,6.722285E2,2.3143516E3,4.9276953E2,0E0,1.7311244E2,3.3242188E2,0E0,7.418403E2,0E0,2.2520538E1,0E0,0E0,2.2827344E2,0E0,5.2157074E1,1.6152484E0,0E0,1.095625E2,0E0,0E0,0E0,0E0,0E0,0E0,3.1538145E3,0E0,0E0],"parents":[2147483647,0,0,1,1,2,2,3,3,4,4,6,6,7,7,9,9,11,11,14,14,16,16,17,17,19,19,26,26],"right_children":[2,4,6,8,10,-1,12,14,-1,16,-1,18,-1,-1,20,-1,22,24,-1,26,-1,-1,-1,-1,-1,-1,28,-1,-1],"split_conditions":[0E0,5.05E3,3E0,1.7339994E9,1.7339142E9,-1.243796E-1,8E1,1.7339131E9,-1.3179477E-1,1.7339131E9,-1.2464547E-1,8E1,-1.2312789E-1,-1.2782232E-1,6E0,-1.24343514E-1,3.3036E4,1.7339133E9,1.062418E-1,1.7339142E9,-1.22192994E-1,1.0679286E-1,-1.2004089E-1,-0E0,-9.387739E-2,1.0650257E-1,1.733999E9,-1.3092788E-1,1.0646447E-1],"split_indices":[6,4,6,0,0,0,4,0,0,0,0,3,0,0,1,0,4,0,0,0,0,0,0,0,0,0,0,0,0],"split_type":[0,0,0,0,0,0,0,0,0,0,0,0,0,0,0,0,0,0,0,0,0,0,0,0,0,0,0,0,0],"sum_hessian":[6.594644E4,4.744757E4,1.8498871E4,4.055446E4,6.8931064E3,1.8283055E4,2.1581544E2,4.0128355E4,4.261051E2,6.176945E2,6.2754116E3,1.718065E2,4.400893E1,6.223864E1,4.0066117E4,3.577826E2,2.599119E2,7.10502E0,1.6470149E2,4.002146E4,4.465649E1,2.4975844E2,1.0153465E1,1.6059656E0,5.4990544E0,2.7810963E4,1.22105E4,5.8756866E2,1.1622932E4],"tree_param":{"num_deleted":"0","num_feature":"19","num_nodes":"29","size_leaf_vector":"1"}},{"base_weights":[1.4959165E-1,6.8019265E-1,-1.1947633E0,9.927946E-1,-1.1372464E0,-8.594263E-1,-1.2156904E-1,1.0248989E0,-8.9782774E-1,1.0501663E-1,-1.179587E0,-1.205803E0,6.4614993E-1,1.0372624E0,-1.3484272E0,-1.2175747E-1,1.0571288E-1,-6.8360174E-1,-1.2176099E-1,-1.2103178E-1,-5.704527E-1,1.0526904E-1,-8.7658906E-1,-1.2579308E-1,1.0389905E0,-1.2111815E-1,-1.5328038E-1,-1.21445976E-1,8.5584646E-1,-1.05943196E-1,1.4528039E-1,-1.16152704E-1,1.3445715E0,1.0584451E-1,9.9366415E-1,1.0389248E0,-1.1445451E-1,-0E0,2.0384753E-1,-1.3207265E0,1.0580989E-1,1.061989E-1,-3.479136E-2,-1.2224485E-1,-1.537035E-1],"categories":[],"categories_nodes":[],"categories_segments":[],"categories_sizes":[],"default_left":[0,0,0,0,0,0,0,0,0,0,0,0,0,0,0,0,0,0,0,0,0,0,0,0,0,0,0,0,0,0,0,0,0,0,0,0,0,0,0,0,0,0,0,0,0],"id":14,"left_children":[1,3,5,7,9,11,-1,13,15,-1,17,19,21,23,25,-1,-1,27,-1,-1,29,-1,31,-1,33,-1,-1,-1,35,-1,-1,-1,37,-1,39,41,-1,-1,-1,43,-1,-1,-1,-1,-1],"loss_changes":[4.3119113E4,2.4624658E4,1.179707E2,2.244875E3,5.8921875E2,5.2603754E2,0E0,1.0667578E3,3.8583554E2,0E0,1.1578125E2,5.7055664E-1,1.1650964E2,1.4326953E2,2.0144348E0,0E0,0E0,3.649997E2,0E0,0E0,6.874917E0,0E0,2.4550848E1,0E0,2.9824219E1,0E0,0E0,0E0,4.1617874E1,0E0,0E0,0E0,4.805407E0,0E0,1.6210557E3,4.0672836E0,0E0,0E0,0E0,3.4918823E0,0E0,0E0,0E0,0E0,0E0],"parents":[2147483647,0,0,1,1,2,2,3,3,4,4,5,5,7,7,8,8,10,10,11,11,12,12,13,13,14,14,17,17,20,20,22,22,24,24,28,28,32,32,34,34,35,35,39,39],"right_children":[2,4,6,8,10,12,-1,14,16,-1,18,20,22,24,26,-1,-1,28,-1,-1,30,-1,32,-1,34,-1,-1,-1,36,-1,-1,-1,38,-1,40,42,-1,-1,-1,44,-1,-1,-1,-1,-1],"split_conditions":[0E0,5.05E3,1.7339142E9,1.0007648E17,1.0001844E16,1.7339131E9,-1.2156904E-1,1.7339994E9,6.1074E4,1.0501663E-1,1.7339142E9,2.2122716E-3,1.7339133E9,1.7339131E9,1.0006612E17,-1.2175747E-1,1.0571288E-1,1.7339131E9,-1.2176099E-1,-1.2103178E-1,1.91E8,1.0526904E-1,1.9743721E-4,-1.2579308E-1,1.7339142E9,-1.2111815E-1,-1.5328038E-1,-1.21445976E-1,3.3036E4,-1.05943196E-1,1.4528039E-1,-1.16152704E-1,6.36E8,1.0584451E-1,1.733999E9,3.4714285E2,-1.1445451E-1,-0E0,2.0384753E-1,1.0006612E17,1.0580989E-1,1.061989E-1,-3.479136E-2,-1.2224485E-1,-1.537035E-1],"split_indices":[7,4,0,2,2,0,0,0,3,0,0,16,0,0,2,0,0,0,0,0,9,0,16,0,0,0,0,0,4,0,0,0,9,0,0,17,0,0,0,2,0,0,0,0,0],"split_type":[0,0,0,0,0,0,0,0,0,0,0,0,0,0,0,0,0,0,0,0,0,0,0,0,0,0,0,0,0,0,0,0,0,0,0,0,0,0,0,0,0,0,0,0,0],"sum_hessian":[6.0449543E4,4.3343227E4,1.7106314E4,3.6982703E4,6.360525E3,1.0076347E3,1.609868E4,3.636571E4,6.169899E2,1.2033111E2,6.240194E3,8.1971356E2,1.8792116E2,3.617767E4,1.8804224E2,5.307015E2,8.6288445E1,4.4619238E2,5.7940015E3,8.123669E2,7.346674E0,1.4884048E2,3.908068E1,2.6782454E1,3.6150887E4,1.1090832E2,7.713392E1,3.322649E2,1.139275E2,6.314776E0,1.031898E0,3.5036316E1,4.0443616E0,2.5278834E4,1.0872054E4,1.04832954E2,9.094543E0,1.1283603E0,2.9160013E0,2.940685E2,1.0577984E4,1.0382729E2,1.0056617E0,2.0537912E2,8.868939E1],"tree_param":{"num_deleted":"0","num_feature":"19","num_nodes":"45","size_leaf_vector":"1"}},{"base_weights":[1.4655237E-1,6.742601E-1,-1.1704739E0,9.867503E-1,-1.1138272E0,-1.1897674E0,5.2435356E-1,1.0190214E0,-8.8649803E-1,1.04358554E-1,-1.1551709E0,-1.1908966E-1,-9.631406E-1,9.7844374E-1,-1.1717576E-1,1.0315701E0,-1.3049601E-1,4.823984E-1,-1.1919788E-1,-6.579753E-1,-1.19257085E-1,2.561061E-1,-1.1796229E-1,-4.3769833E-1,1.0496755E-1,-1.2129139E-1,1.0333117E0,-1.1589595E-1,1.0488627E-1,-1.18923046E-1,8.1168365E-1,8.9971273E-4,-8.04878E-2,1.05252445E-1,9.885937E-1,1.0293549E0,-1.13748126E-1,-1.2808071E0,1.05224624E-1,1.05401956E-1,-3.131965E-2,-1.1958172E-1,-1.4584449E-1],"categories":[],"categories_nodes":[],"categories_segments":[],"categories_sizes":[],"default_left":[0,0,0,0,0,0,0,0,0,0,0,0,0,0,0,0,0,0,0,0,0,0,0,0,0,0,0,0,0,0,0,0,0,0,0,0,0,0,0,0,0,0,0],"id":15,"left_children":[1,3,5,7,9,11,13,15,17,-1,19,-1,21,23,-1,25,-1,27,-1,29,-1,-1,-1,31,-1,-1,33,-1,-1,-1,35,-1,-1,-1,37,39,-1,41,-1,-1,-1,-1,-1],"loss_changes":[3.8414395E4,2.2049615E4,5.17666E2,2.0308223E3,5.236924E2,1.8457031E0,1.3641985E2,9.6278906E2,2.3838712E2,0E0,1.0525879E2,0E0,6.111149E1,1.4772934E1,0E0,1.2821484E2,0E0,9.5748634E1,0E0,3.1646484E2,0E0,0E0,0E0,1.7883036E0,0E0,0E0,2.615625E1,0E0,0E0,0E0,4.528476E1,0E0,0E0,0E0,1.4268701E3,3.9429932E0,0E0,1.4085999E0,0E0,0E0,0E0,0E0,0E0],"parents":[2147483647,0,0,1,1,2,2,3,3,4,4,5,5,6,6,7,7,8,8,10,10,12,12,13,13,15,15,17,17,19,19,23,23,26,26,30,30,34,34,35,35,37,37],"right_children":[2,4,6,8,10,12,14,16,18,-1,20,-1,22,24,-1,26,-1,28,-1,30,-1,-1,-1,32,-1,-1,34,-1,-1,-1,36,-1,-1,-1,38,40,-1,42,-1,-1,-1,-1,-1],"split_conditions":[0E0,5.05E3,3E0,1.0007648E17,1.0001844E16,4.8123332E4,8E1,1.7339994E9,1.7339142E9,1.04358554E-1,1.7339142E9,-1.1908966E-1,1.0001266E15,1.000401E13,-1.1717576E-1,1.7339131E9,-1.3049601E-1,1.7339131E9,-1.1919788E-1,1.7339131E9,-1.19257085E-1,2.561061E-1,-1.1796229E-1,1.7339133E9,1.0496755E-1,-1.2129139E-1,1.7339142E9,-1.1589595E-1,1.0488627E-1,-1.18923046E-1,3.3036E4,8.9971273E-4,-8.04878E-2,1.05252445E-1,1.733999E9,1.1E1,-1.13748126E-1,1.0006612E17,1.05224624E-1,1.05401956E-1,-3.131965E-2,-1.1958172E-1,-1.4584449E-1],"split_indices":[6,4,6,2,2,15,4,0,0,0,0,0,2,2,0,0,0,0,0,0,0,0,0,0,0,0,0,0,0,0,4,0,0,0,0,15,0,2,0,0,0,0,0],"split_type":[0,0,0,0,0,0,0,0,0,0,0,0,0,0,0,0,0,0,0,0,0,0,0,0,0,0,0,0,0,0,0,0,0,0,0,0,0,0,0,0,0,0,0],"sum_hessian":[5.5272832E4,3.9461938E4,1.5810897E4,3.35919E4,5.8700376E3,1.56335205E4,1.7737651E2,3.3023523E4,5.683734E2,1.0992063E2,5.7601167E3,1.5551608E4,8.191206E1,1.4038232E2,3.699418E1,3.2846594E4,1.7693031E2,1.0309932E2,4.652741E2,4.0484363E2,5.3552734E3,4.4731145E0,7.743895E1,6.050713E0,1.3433162E2,2.5021883E1,3.2821574E4,2.5999414E1,7.70999E1,2.978549E2,1.0698873E2,1.501089E0,4.5496244E0,2.2942252E4,9.87932E3,9.670259E1,1.0286138E1,2.6910812E2,9.610212E3,9.568948E1,1.0131053E0,1.8582861E2,8.3279495E1],"tree_param":{"num_deleted":"0","num_feature":"19","num_nodes":"43","size_leaf_vector":"1"}},{"base_weights":[1.4561148E-1,6.6986036E-1,-1.1492232E0,9.8150563E-1,-1.094635E0,-1.1673888E0,-9.4124055E-1,9.862464E-1,-1.15347505E-1,-9.1066134E-1,-1.170721E-1,-1.1686026E-1,-9.4012356E-1,1.0391392E-1,-1.1697465E-1,1.047078E-1,9.17718E-1,6.5787935E-1,-1.1684034E-1,2.1036842E-1,-1.15694754E-1,8.7119204E-1,1.0468531E-1,1.0202025E0,1.5670614E-1,7.079442E-1,9.068523E-1,-0E0,1.0373235E-1,3.7034488E-1,-5.433731E-1,7.110064E-1,-2.9939893E-1,9.1983736E-1,8.087616E-1,5.586774E-2,9.816568E-2,-1.16151094E-1,2.501222E-1,7.607149E-2,6.7019336E-2,1.3581221E-2,-8.619296E-2,8.6585414E-1,9.4168705E-1,5.3815365E-2,8.3646184E-1,7.040667E-1,-5.22741E-1,-6.5102905E-2,6.51969E-2,9.326861E-2,8.393068E-1,9.425808E-2,4.8629335E-1,8.3971985E-2,-0E0,-8.672423E-2,9.688577E-2,-1.1600671E-1,2.1340053E-1,8.412706E-2,1.4352389E-2,7.1250714E-2,-5.699698E-3,4.463343E-2,-5.746884E-2,-8.610239E-2,6.9793634E-2],"categories":[],"categories_nodes":[],"categories_segments":[],"categories_sizes":[],"default_left":[0,0,0,0,0,0,0,0,0,0,0,0,0,0,0,0,0,0,0,0,0,0,0,0,0,0,0,0,0,0,0,0,0,0,0,0,0,0,0,0,0,0,0,0,0,0,0,0,0,0,0,0,0,0,0,0,0,0,0,0,0,0,0,0,0,0,0,0,0],"id":16,"left_children":[1,3,5,7,9,11,13,15,-1,17,-1,-1,19,-1,-1,-1,21,23,-1,-1,-1,25,-1,27,29,31,33,-1,-1,35,37,39,41,43,45,47,-1,-1,49,-1,-1,-1,-1,51,53,-1,55,57,59,-1,-1,-1,61,-1,63,-1,65,-1,-1,-1,67,-1,-1,-1,-1,-1,-1,-1,-1],"loss_changes":[3.427354E4,1.9763328E4,5.286328E1,3.09E2,7.342822E1,1.5820312E0,5.310449E2,1.2508984E2,0E0,6.401207E2,0E0,0E0,4.8842453E1,0E0,0E0,0E0,8.424121E1,3.9268486E1,0E0,0E0,0E0,5.9788574E1,0E0,3.2571564E0,1.3978277E1,6.260376E0,9.291504E0,0E0,0E0,1.3109457E1,1.1225508E1,2.4060059E0,1.8906311E0,7.194336E0,6.274292E0,1.8810955E1,0E0,0E0,3.0788605E0,0E0,0E0,0E0,0E0,2.15271E0,7.763672E-1,0E0,2.4643555E0,1.018806E1,1.2877296E1,0E0,0E0,0E0,1.1929932E0,0E0,2.2293422E0,0E0,9.282509E-1,0E0,0E0,0E0,5.6009417E0,0E0,0E0,0E0,0E0,0E0,0E0,0E0,0E0],"parents":[2147483647,0,0,1,1,2,2,3,3,4,4,5,5,6,6,7,7,9,9,12,12,16,16,17,17,21,21,23,23,24,24,25,25,26,26,29,29,30,30,31,31,32,32,33,33,34,34,35,35,38,38,43,43,44,44,46,46,47,47,48,48,52,52,54,54,56,56,60,60],"right_children":[2,4,6,8,10,12,14,16,-1,18,-1,-1,20,-1,-1,-1,22,24,-1,-1,-1,26,-1,28,30,32,34,-1,-1,36,38,40,42,44,46,48,-1,-1,50,-1,-1,-1,-1,52,54,-1,56,58,60,-1,-1,-1,62,-1,64,-1,66,-1,-1,-1,68,-1,-1,-1,-1,-1,-1,-1,-1],"split_conditions":[0E0,5.05E3,1.7E1,6E0,3.3036E4,4.8123332E4,8E1,8E1,-1.15347505E-1,1.392E3,-1.170721E-1,-1.1686026E-1,8E1,1.0391392E-1,-1.1697465E-1,1.047078E-1,9.8E1,3.0941E4,-1.1684034E-1,2.1036842E-1,-1.15694754E-1,2E0,1.0468531E-1,5.051E3,1.2E1,2E1,5E0,-0E0,1.0373235E-1,1.1E1,5E0,8E0,2E7,3E0,4E0,2E0,9.816568E-2,-1.16151094E-1,5.07E8,7.607149E-2,6.7019336E-2,1.3581221E-2,-8.619296E-2,4E0,2E1,5.3815365E-2,2E1,1E0,5E0,-6.5102905E-2,6.51969E-2,9.326861E-2,2E1,9.425808E-2,1.03E8,8.3971985E-2,5.8E7,-8.672423E-2,9.688577E-2,-1.1600671E-1,6.36E8,8.412706E-2,1.4352389E-2,7.1250714E-2,-5.699698E-3,4.463343E-2,-5.746884E-2,-8.610239E-2,6.9793634E-2],"split_indices":[7,4,5,1,4,15,4,4,0,14,0,0,4,0,0,0,14,4,0,0,0,1,0,4,8,8,1,0,0,8,1,8,9,1,8,8,0,0,9,0,0,0,0,8,8,0,8,8,1,0,0,0,8,0,9,0,9,0,0,0,9,0,0,0,0,0,0,0,0],"split_type":[0,0,0,0,0,0,0,0,0,0,0,0,0,0,0,0,0,0,0,0,0,0,0,0,0,0,0,0,0,0,0,0,0,0,0,0,0,0,0,0,0,0,0,0,0,0,0,0,0,0,0,0,0,0,0,0,0,0,0,0,0,0,0,0,0,0,0,0,0],"sum_hessian":[5.0490902E4,3.594028E4,1.4550624E4,3.0545838E4,5.394441E3,1.3377407E4,1.1732173E3,3.0478629E4,6.720992E1,1.5821018E3,3.812339E3,1.3301965E4,7.544157E1,1.2091485E2,1.0523024E3,1.6138305E4,1.4340324E4,2.2273335E2,1.3593684E3,4.709986E0,7.0731575E1,1.0547807E4,3.7925178E3,1.2811633E2,9.461703E1,1.8960383E3,8.651769E3,1.1672093E0,1.2694912E2,7.3588806E1,2.1028217E1,1.8912817E3,4.7566204E0,7.631352E3,1.02041595E3,4.9671913E1,2.3916891E1,1.25286045E1,8.499614E0,8.4166785E2,1.0496139E3,1.6795374E0,3.077083E0,2.2120063E3,5.4193457E3,9.810581E1,9.223102E2,2.4242271E1,2.5429644E1,1.8538345E0,6.6457796E0,6.181552E2,1.5938511E3,5.40654E3,1.280582E1,9.18662E2,3.648155E0,2.9514382E0,2.1290833E1,1.4357686E1,1.1071958E1,1.587932E3,5.919066E0,1.0340788E1,2.465033E0,2.110708E0,1.537447E0,2.799789E0,8.272168E0],"tree_param":{"num_deleted":"0","num_feature":"19","num_nodes":"69","size_leaf_vector":"1"}},{"base_weights":[1.433957E-1,6.5933096E-1,-1.1307677E0,9.6762824E-1,-1.0773115E0,-8.180049E-1,-1.15009986E-1,1.0041364E0,-9.0393054E-1,1.0316497E-1,-1.1160427E0,-1.1393764E0,6.4577794E-1,1.0188468E0,-1.2898536E-1,-1.1809238E-1,1.0357355E-1,-6.433615E-1,-1.1520749E-1,-1.143109E0,-1.8602519E-1,1.0350682E-1,-7.4726087E-1,-1.1914221E-1,1.0207107E0,-1.1482229E-1,8.4500396E-1,-1.0562473E-1,-1.1462227E-1,-7.4733846E-2,1.5445557E-2,-1.1155196E-1,1.470435E-1,1.0428939E-1,9.690134E-1,1.0219692E0,-1.0433872E-1,-0E0,-6.07314E-2,-1.2641863E0,1.04231134E-1,1.0402971E-1,-0E0,-1.1883707E-1,-1.427775E-1],"categories":[],"categories_nodes":[],"categories_segments":[],"categories_sizes":[],"default_left":[0,0,0,0,0,0,0,0,0,0,0,0,0,0,0,0,0,0,0,0,0,0,0,0,0,0,0,0,0,0,0,0,0,0,0,0,0,0,0,0,0,0,0,0,0],"id":17,"left_children":[1,3,5,7,9,11,-1,13,15,-1,17,19,21,23,-1,-1,-1,25,-1,27,29,-1,31,-1,33,-1,35,37,-1,-1,-1,-1,-1,-1,39,41,-1,-1,-1,43,-1,-1,-1,-1,-1],"loss_changes":[3.045386E4,1.765475E4,7.876172E1,1.9135449E3,4.061162E2,3.6753027E2,0E0,9.266719E2,2.8774622E2,0E0,8.1348145E1,9.494629E-1,7.6155716E1,1.1228125E2,0E0,0E0,0E0,2.6159778E2,0E0,8.0529785E-1,1.2698458E0,0E0,2.414214E1,0E0,2.9263672E1,0E0,2.924456E1,6.448205E-1,0E0,0E0,0E0,0E0,0E0,0E0,1.3423608E3,1.9533081E0,0E0,0E0,0E0,6.112671E-1,0E0,0E0,0E0,0E0,0E0],"parents":[2147483647,0,0,1,1,2,2,3,3,4,4,5,5,7,7,8,8,10,10,11,11,12,12,13,13,17,17,19,19,20,20,22,22,24,24,26,26,27,27,34,34,35,35,39,39],"right_children":[2,4,6,8,10,12,-1,14,16,-1,18,20,22,24,-1,-1,-1,26,-1,28,30,-1,32,-1,34,-1,36,38,-1,-1,-1,-1,-1,-1,40,42,-1,-1,-1,44,-1,-1,-1,-1,-1],"split_conditions":[0E0,5.05E3,1.7339142E9,1.0007648E17,1.0001844E16,1.7339131E9,-1.15009986E-1,1.7339994E9,6.1074E4,1.0316497E-1,1.7339142E9,4.98977E5,1.7339133E9,1.7339131E9,-1.2898536E-1,-1.1809238E-1,1.0357355E-1,1.7339131E9,-1.1520749E-1,4E6,3.951075E4,1.0350682E-1,1.46948E5,-1.1914221E-1,1.7339142E9,-1.1482229E-1,3.3036E4,2.1428572E-1,-1.1462227E-1,-7.4733846E-2,1.5445557E-2,-1.1155196E-1,1.470435E-1,1.0428939E-1,1.733999E9,6.349207E-8,-1.0433872E-1,-0E0,-6.07314E-2,1.0006612E17,1.04231134E-1,1.0402971E-1,-0E0,-1.1883707E-1,-1.427775E-1],"split_indices":[7,4,0,2,2,0,0,0,3,0,0,13,0,0,0,0,0,0,0,9,15,0,13,0,0,0,4,15,0,0,0,0,0,0,0,16,0,0,0,2,0,0,0,0,0],"split_type":[0,0,0,0,0,0,0,0,0,0,0,0,0,0,0,0,0,0,0,0,0,0,0,0,0,0,0,0,0,0,0,0,0,0,0,0,0,0,0,0,0,0,0,0,0],"sum_hessian":[4.6326418E4,3.2974957E4,1.3351461E4,2.8004105E4,4.97085E3,7.8023505E2,1.2571226E4,2.746881E4,5.352962E2,8.9178024E1,4.8816724E3,6.403338E2,1.3990123E2,2.729422E4,1.7458916E2,4.688568E2,6.643937E1,3.4773517E2,4.533937E3,6.367917E2,3.5421505E0,1.0990555E2,2.9995682E1,2.254671E1,2.7271674E4,2.6015955E2,8.757561E1,2.8664327E0,6.3392523E2,2.4462726E0,1.095878E0,2.6110783E1,3.8848996E0,1.9069633E4,8.202041E3,8.0556076E1,7.0195336E0,1.0314422E0,1.8349906E0,2.6021808E2,7.9418228E3,7.954754E1,1.0085375E0,1.8198824E2,7.822982E1],"tree_param":{"num_deleted":"0","num_feature":"19","num_nodes":"45","size_leaf_vector":"1"}},{"base_weights":[1.4235458E-1,6.561935E-1,-1.1140252E0,9.6282923E-1,-1.0613962E0,-1.1326902E0,5.192367E-1,9.9960184E-1,-9.002442E-1,1.0266435E-1,-1.1004039E0,-1.1339208E-1,-8.9045554E-1,9.492547E-1,-1.1051911E-1,1.0142498E0,-1.2534772E-1,3.8956517E-1,-1.16042554E-1,-6.416581E-1,-1.13547616E-1,1.9311677E-1,-1.119493E-1,-4.260378E-1,1.0379475E-1,-1.1743462E-1,1.0162109E0,-1.12506464E-1,1.0286623E-1,-1.13140956E-1,8.1877744E-1,-0E0,-7.17675E-2,1.0386839E-1,9.637676E-1,1.0130727E0,-1.02930024E-1,-1.2318496E-1,1.0380981E-1,1.0335702E-1,-0E0],"categories":[],"categories_nodes":[],"categories_segments":[],"categories_sizes":[],"default_left":[0,0,0,0,0,0,0,0,0,0,0,0,0,0,0,0,0,0,0,0,0,0,0,0,0,0,0,0,0,0,0,0,0,0,0,0,0,0,0,0,0],"id":18,"left_children":[1,3,5,7,9,11,13,15,17,-1,19,-1,21,23,-1,25,-1,27,-1,29,-1,-1,-1,31,-1,-1,33,-1,-1,-1,35,-1,-1,-1,37,39,-1,-1,-1,-1,-1],"loss_changes":[2.7307307E4,1.5811745E4,3.7489648E2,1.745373E3,3.7045312E2,1.5927734E0,9.6324814E1,8.2425195E2,1.6606332E2,0E0,7.005176E1,0E0,4.1497597E1,1.3992455E1,0E0,1.0637305E2,0E0,7.9312546E1,0E0,2.2854826E2,0E0,0E0,0E0,1.1536008E0,0E0,0E0,2.7222656E1,0E0,0E0,0E0,2.857412E1,0E0,0E0,0E0,1.2160757E3,1.9640884E0,0E0,0E0,0E0,0E0,0E0],"parents":[2147483647,0,0,1,1,2,2,3,3,4,4,5,5,6,6,7,7,8,8,10,10,12,12,13,13,15,15,17,17,19,19,23,23,26,26,30,30,34,34,35,35],"right_children":[2,4,6,8,10,12,14,16,18,-1,20,-1,22,24,-1,26,-1,28,-1,30,-1,-1,-1,32,-1,-1,34,-1,-1,-1,36,-1,-1,-1,38,40,-1,-1,-1,-1,-1],"split_conditions":[0E0,5.05E3,3E0,1.0007648E17,1.0001844E16,4.8123332E4,8E1,1.7339994E9,1.7339142E9,1.0266435E-1,1.7339142E9,-1.1339208E-1,1.0001266E15,1.000401E13,-1.1051911E-1,1.7339131E9,-1.2534772E-1,1.7339131E9,-1.16042554E-1,1.7339131E9,-1.13547616E-1,1.9311677E-1,-1.119493E-1,1.7339133E9,1.0379475E-1,-1.1743462E-1,1.7339142E9,-1.12506464E-1,1.0286623E-1,-1.13140956E-1,3.3036E4,-0E0,-7.17675E-2,1.0386839E-1,1.733999E9,2.3333333E0,-1.02930024E-1,-1.2318496E-1,1.0380981E-1,1.0335702E-1,-0E0],"split_indices":[6,4,6,2,2,15,4,0,0,0,0,0,2,2,0,0,0,0,0,0,0,0,0,0,0,0,0,0,0,0,4,0,0,0,0,15,0,0,0,0,0],"split_type":[0,0,0,0,0,0,0,0,0,0,0,0,0,0,0,0,0,0,0,0,0,0,0,0,0,0,0,0,0,0,0,0,0,0,0,0,0,0,0,0,0],"sum_hessian":[4.229978E4,3.0022049E4,1.2277734E4,2.5474713E4,4.5473354E3,1.2139615E4,1.3811906E2,2.4982162E4,4.9255096E2,8.292308E1,4.4644126E3,1.2074147E4,6.546815E1,1.09695984E2,2.8423086E1,2.4821234E4,1.6092702E2,8.203442E1,4.1051654E2,3.190989E2,4.1453135E3,4.5874186E0,6.088073E1,5.9626555E0,1.0373333E2,2.1764273E1,2.479947E4,2.3878592E1,5.8155827E1,2.3947623E2,7.9622696E1,1.6216416E0,4.341014E0,1.7346902E4,7.4525684E3,7.253764E1,7.0850496E0,2.435973E2,7.208971E3,7.152766E1,1.0099869E0],"tree_param":{"num_deleted":"0","num_feature":"19","num_nodes":"41","size_leaf_vector":"1"}},{"base_weights":[1.4186372E-1,6.530534E-1,-1.0997201E0,9.5926845E-1,-1.0480359E0,-1.1179502E-1,4.951289E-1,9.9616224E-1,-8.800958E-1,1.021709E-1,-1.0866787E0,9.419541E-1,-1.0891706E-1,1.0345632E-1,9.4859576E-1,-1.1426965E-1,1.02303766E-1,-9.986338E-1,-1.1206744E-1,-4.0446863E-1,1.03194885E-1,1.0342883E-1,8.6927736E-1,5.427044E-1,-1.1202624E-1,-0E0,-8.151172E-2,-1.148312E-1,9.696304E-1,-8.8251606E-2,6.23635E-1,-6.08251E-2,8.237338E-2,9.097196E-3,9.7103906E-1,-6.576411E-2,6.695903E-1,9.566595E-1,1.0333784E-1,7.646585E-1,8.011262E-2,9.402855E-1,1.02558516E-1,8.124944E-2,1.2468292E-2,-9.706104E-2,7.462357E-2,9.443946E-2,1.4918734E-2,6.842697E-2,-6.6170506E-2],"categories":[],"categories_nodes":[],"categories_segments":[],"categories_sizes":[],"default_left":[0,0,0,0,0,0,0,0,0,0,0,0,0,0,0,0,0,0,0,0,0,0,0,0,0,0,0,0,0,0,0,0,0,0,0,0,0,0,0,0,0,0,0,0,0,0,0,0,0,0,0],"id":19,"left_children":[1,3,5,7,9,-1,11,13,15,-1,17,19,-1,-1,21,-1,-1,23,-1,25,-1,-1,27,29,-1,31,-1,-1,33,-1,35,-1,-1,-1,37,-1,39,41,-1,43,45,47,-1,-1,49,-1,-1,-1,-1,-1,-1],"loss_changes":[2.446319E4,1.422241E4,3.274414E2,1.5703555E3,3.3316162E2,0E0,8.9343994E1,3.9453125E1,2.2724316E2,0E0,1.0119141E1,1.2635399E1,0E0,0E0,6.7049805E1,0E0,0E0,2.156405E2,0E0,1.0126867E0,0E0,0E0,1.0677207E3,9.349602E0,0E0,1.3439336E0,0E0,0E0,5.1572266E0,0E0,4.692478E0,0E0,0E0,0E0,2.5063477E0,0E0,3.4979134E0,2.6481934E0,0E0,1.523529E0,8.330433E0,9.684082E0,0E0,0E0,2.356225E0,0E0,0E0,0E0,0E0,0E0,0E0],"parents":[2147483647,0,0,1,1,2,2,3,3,4,4,6,6,7,7,8,8,10,10,11,11,14,14,17,17,19,19,22,22,23,23,25,25,28,28,30,30,34,34,36,36,37,37,39,39,40,40,41,41,44,44],"right_children":[2,4,6,8,10,-1,12,14,16,-1,18,20,-1,-1,22,-1,-1,24,-1,26,-1,-1,28,30,-1,32,-1,-1,34,-1,36,-1,-1,-1,38,-1,40,42,-1,44,46,48,-1,-1,50,-1,-1,-1,-1,-1,-1],"split_conditions":[0E0,5.05E3,3E0,1.0007648E17,1.0001844E16,-1.1179502E-1,8E1,3.2663E4,6.1074E4,1.021709E-1,3.3036E4,1.000401E13,-1.0891706E-1,1.0345632E-1,8E1,-1.1426965E-1,1.02303766E-1,1.0004584E17,-1.1206744E-1,1.000501E12,1.03194885E-1,1.0342883E-1,1.0006612E17,1.91E8,-1.1202624E-1,1.000201E12,-8.151172E-2,-1.148312E-1,3.3242E4,-8.8251606E-2,1E0,-6.08251E-2,8.237338E-2,9.097196E-3,1E0,-6.576411E-2,1.2E1,5.9289E4,1.0333784E-1,7.85E8,5E0,5.8696E4,1.02558516E-1,8.124944E-2,8E0,-9.706104E-2,7.462357E-2,9.443946E-2,1.4918734E-2,6.842697E-2,-6.6170506E-2],"split_indices":[6,4,6,2,2,0,4,3,3,0,4,2,0,0,4,0,0,2,0,2,0,0,2,9,0,2,0,0,3,0,8,0,0,0,13,0,8,3,0,9,1,3,0,0,8,0,0,0,0,0,0],"split_type":[0,0,0,0,0,0,0,0,0,0,0,0,0,0,0,0,0,0,0,0,0,0,0,0,0,0,0,0,0,0,0,0,0,0,0,0,0,0,0,0,0,0,0,0,0,0,0,0,0,0,0],"sum_hessian":[3.8544543E4,2.7303746E4,1.1240798E4,2.3139047E4,4.164699E3,1.1114381E4,1.2641699E2,2.2684586E4,4.5446124E2,7.585705E1,4.088842E3,9.9098976E1,2.7318016E1,1.2539927E4,1.0144659E4,3.9981842E2,5.464285E1,1.1471813E3,2.941661E3,5.5125904E0,9.358639E1,4.8703335E3,5.2743257E3,8.330291E1,1.0638783E3,2.6310852E0,2.8815053E0,2.4943767E2,5.0248877E3,3.8122025E0,7.949071E1,1.4303358E0,1.2007493E0,9.178948E0,5.015709E3,1.9989138E0,7.749179E1,4.088642E3,9.2706665E2,6.526908E1,1.222271E1,3.315516E3,7.7312604E2,6.0116493E1,5.1525855E0,4.159854E0,8.062856E0,3.2971262E3,1.8389858E1,3.323789E0,1.8287967E0],"tree_param":{"num_deleted":"0","num_feature":"19","num_nodes":"51","size_leaf_vector":"1"}},{"base_weights":[1.3994277E-1,6.4784944E-1,-1.0865446E0,8.925086E-1,-1.0760475E0,-7.7931106E-1,-1.1055968E-1,9.4209075E-1,-1.1458173E0,-2.0855214E-1,-1.1092305E-1,-1.0937847E0,6.3655674E-1,-1.121182E-1,9.488758E-1,-1.1114504E-1,-1.361289E-1,8.893976E-1,-1.1354319E-1,-0E0,-1.0977389E0,1.0212077E-1,-6.4698493E-1,1.03098944E-1,7.7313167E-1,-8.4060065E-2,1.0169526E-1,-1.10239185E-1,-0E0,-1.06224515E-1,1.4205147E-1,-1.138357E0,1.0309114E-1,-5.548953E-2,1.8629305E-2,-1.1140754E-1,-1.357327E-1],"categories":[],"categories_nodes":[],"categories_segments":[],"categories_sizes":[],"default_left":[0,0,0,0,0,0,0,0,0,0,0,0,0,0,0,0,0,0,0,0,0,0,0,0,0,0,0,0,0,0,0,0,0,0,0,0,0],"id":20,"left_children":[1,3,5,7,9,11,-1,13,15,17,-1,19,21,-1,23,-1,-1,25,-1,-1,27,-1,29,-1,31,-1,-1,-1,33,-1,-1,35,-1,-1,-1,-1,-1],"loss_changes":[2.1924266E4,1.0497294E4,5.8442383E1,2.2026426E3,8.7711914E1,2.697697E2,0E0,2.977246E2,1.3566895E0,1.17335106E2,0E0,1.7028198E0,5.436128E1,0E0,3.0427734E2,0E0,0E0,1.1689579E1,0E0,0E0,1.642273E0,0E0,2.0774143E1,0E0,3.3299133E3,0E0,0E0,0E0,5.833633E-1,0E0,0E0,1.7961426E0,0E0,0E0,0E0,0E0,0E0],"parents":[2147483647,0,0,1,1,2,2,3,3,4,4,5,5,7,7,8,8,9,9,11,11,12,12,14,14,17,17,20,20,22,22,24,24,28,28,31,31],"right_children":[2,4,6,8,10,12,-1,14,16,18,-1,20,22,-1,24,-1,-1,26,-1,-1,28,-1,30,-1,32,-1,-1,-1,34,-1,-1,36,-1,-1,-1,-1,-1],"split_conditions":[0E0,1.0007648E17,1.7339142E9,1.7339994E9,1.0008587E17,1.7339131E9,-1.1055968E-1,1.7339131E9,1.0006612E17,1.7339142E9,-1.1092305E-1,4E6,1.7339133E9,-1.121182E-1,1.7339142E9,-1.1114504E-1,-1.361289E-1,1.7339131E9,-1.1354319E-1,-0E0,4.98977E5,1.0212077E-1,1.46948E5,1.03098944E-1,1.733999E9,-8.4060065E-2,1.0169526E-1,-1.10239185E-1,1.7339099E9,-1.06224515E-1,1.4205147E-1,1.0006612E17,1.0309114E-1,-5.548953E-2,1.8629305E-2,-1.1140754E-1,-1.357327E-1],"split_indices":[7,2,0,0,2,0,0,0,2,0,0,9,0,0,0,0,0,0,0,0,13,0,13,0,0,0,0,0,0,0,0,2,0,0,0,0,0],"split_type":[0,0,0,0,0,0,0,0,0,0,0,0,0,0,0,0,0,0,0,0,0,0,0,0,0,0,0,0,0,0,0,0,0,0,0,0,0],"sum_hessian":[3.5195465E4,2.4889266E4,1.03062E4,2.1796447E4,3.0928188E3,6.0485266E2,9.701348E3,2.127932E4,5.1712714E2,1.1505633E2,2.9777625E3,4.9550418E2,1.0934848E2,6.926396E1,2.1210057E4,4.499957E2,6.7131454E1,5.217396E1,6.2882366E1,2.1502306E0,4.9335397E2,8.473441E1,2.4614063E1,1.445193E4,6.758127E3,3.0443535E0,4.912961E1,4.9054947E2,2.8044991E0,2.0899954E1,3.714109E0,8.026247E2,5.955502E3,1.7790133E0,1.025486E0,7.2661694E2,7.600777E1],"tree_param":{"num_deleted":"0","num_feature":"19","num_nodes":"37","size_leaf_vector":"1"}},{"base_weights":[1.4067444E-1,6.4533675E-1,-1.0751839E0,9.502165E-1,-1.024852E0,-1.0931456E0,5.13252E-1,9.868873E-1,-8.587175E-1,1.0122948E-1,-1.0619909E0,-1.0945382E-1,-8.1219405E-1,9.3558776E-1,-1.0548295E-1,1.002284E0,-1.20858185E-1,3.7898368E-1,-1.1125635E-1,-6.097783E-1,-1.0967151E-1,1.9345304E-1,-1.0754442E-1,-1.9182101E-1,1.0218646E-1,-1.1273368E-1,1.0044008E0,-1.0663022E-1,1.0115047E-1,-1.0914004E-1,7.812497E-1,-0E0,-6.763677E-2,1.0283097E-1,9.487052E-1,9.9381435E-1,-9.87347E-2,-5.4106206E-2,8.6531185E-2,-1.18564986E-1,1.0278495E-1,1.0177536E-1,-0E0],"categories":[],"categories_nodes":[],"categories_segments":[],"categories_sizes":[],"default_left":[0,0,0,0,0,0,0,0,0,0,0,0,0,0,0,0,0,0,0,0,0,0,0,0,0,0,0,0,0,0,0,0,0,0,0,0,0,0,0,0,0,0,0],"id":21,"left_children":[1,3,5,7,9,11,13,15,17,-1,19,-1,21,23,-1,25,-1,27,-1,29,-1,-1,-1,31,-1,-1,33,-1,-1,-1,35,37,-1,-1,39,41,-1,-1,-1,-1,-1,-1,-1],"loss_changes":[1.9618855E4,1.1506013E4,2.681455E2,1.2676992E3,2.639065E2,1.7226562E0,6.891258E1,6.329082E2,1.1985129E2,0E0,5.208423E1,0E0,3.4774555E1,8.866623E0,0E0,8.371875E1,0E0,5.8318745E1,0E0,1.6534271E2,0E0,0E0,0E0,8.1425077E-1,0E0,0E0,2.2767578E1,0E0,0E0,0E0,2.3623268E1,1.5059533E0,0E0,0E0,9.446963E2,1.6481895E0,0E0,0E0,0E0,0E0,0E0,0E0,0E0],"parents":[2147483647,0,0,1,1,2,2,3,3,4,4,5,5,6,6,7,7,8,8,10,10,12,12,13,13,15,15,17,17,19,19,23,23,26,26,30,30,31,31,34,34,35,35],"right_children":[2,4,6,8,10,12,14,16,18,-1,20,-1,22,24,-1,26,-1,28,-1,30,-1,-1,-1,32,-1,-1,34,-1,-1,-1,36,38,-1,-1,40,42,-1,-1,-1,-1,-1,-1,-1],"split_conditions":[0E0,5.05E3,3E0,1.0007648E17,1.0001844E16,4.98977E5,8E1,1.7339994E9,1.7339142E9,1.0122948E-1,1.7339142E9,-1.0945382E-1,1.0001266E15,1.000401E13,-1.0548295E-1,1.7339131E9,-1.20858185E-1,1.7339131E9,-1.1125635E-1,1.7339131E9,-1.0967151E-1,1.9345304E-1,-1.0754442E-1,1.000501E12,1.0218646E-1,-1.1273368E-1,1.7339142E9,-1.0663022E-1,1.0115047E-1,-1.0914004E-1,3.3036E4,1.000201E12,-6.763677E-2,1.0283097E-1,1.733999E9,1.26E2,-9.87347E-2,-5.4106206E-2,8.6531185E-2,-1.18564986E-1,1.0278495E-1,1.0177536E-1,-0E0],"split_indices":[6,4,6,2,2,13,4,0,0,0,0,0,2,2,0,0,0,0,0,0,0,0,0,2,0,0,0,0,0,0,4,2,0,0,0,17,0,0,0,0,0,0,0],"split_type":[0,0,0,0,0,0,0,0,0,0,0,0,0,0,0,0,0,0,0,0,0,0,0,0,0,0,0,0,0,0,0,0,0,0,0,0,0,0,0,0,0,0,0],"sum_hessian":[3.1974174E4,2.2596105E4,9.378067E3,1.9108584E4,3.487522E3,9.273831E3,1.0423724E2,1.8729451E4,3.7913174E2,6.195995E1,3.425562E3,9.22455E3,4.928065E1,8.2622116E1,2.1615124E1,1.8599469E4,1.2998238E2,6.385389E1,3.1527786E2,2.4633574E2,3.1792263E3,3.9778214E0,4.530283E1,5.04939E0,7.757273E1,1.79992E1,1.858147E4,1.8956972E1,4.489692E1,1.8351527E2,6.282046E1,2.8633728E0,2.1860173E0,1.2988032E4,5.5934375E3,5.6585022E1,6.23544E0,1.399157E0,1.4642158E0,1.99543E2,5.3938945E3,5.554557E1,1.0394499E0],"tree_param":{"num_deleted":"0","num_feature":"19","num_nodes":"43","size_leaf_vector":"1"}},{"base_weights":[1.4042366E-1,6.436194E-1,-1.0650029E0,9.468072E-1,-1.0144774E0,-1.081711E0,-8.7067044E-1,9.834631E-1,-8.5154617E-1,1.0078924E-1,-1.0512741E0,-1.0832448E-1,-7.9898363E-1,1.0111307E-1,-1.08510844E-1,1.02531806E-1,9.320122E-1,-1.100435E-1,1.00577176E-1,-9.612553E-1,-1.0863896E-1,1.6512832E-1,-1.0635107E-1,1.0250411E-1,8.4740037E-1,5.352369E-1,-1.0858927E-1,-1.1006706E-1,9.47338E-1,-7.4688554E-2,6.058193E-1,9.2992693E-1,1.0238544E-1,-5.3230044E-2,6.5266013E-1,9.1033053E-1,1.0141052E-1,7.448181E-1,8.482746E-3,9.153041E-1,5.794891E-2,7.8678705E-2,-0E0,-8.702266E-2,7.4077405E-2,1.4466149E-2,9.1725074E-2,-1.0069896E-1,5.05612E-2,4.4251215E-2,-3.9112795E-2],"categories":[],"categories_nodes":[],"categories_segments":[],"categories_sizes":[],"default_left":[0,0,0,0,0,0,0,0,0,0,0,0,0,0,0,0,0,0,0,0,0,0,0,0,0,0,0,0,0,0,0,0,0,0,0,0,0,0,0,0,0,0,0,0,0,0,0,0,0,0,0],"id":22,"left_children":[1,3,5,7,9,11,13,15,17,-1,19,-1,21,-1,-1,-1,23,-1,-1,25,-1,-1,-1,-1,27,29,-1,-1,31,-1,33,35,-1,-1,37,39,-1,41,43,45,47,-1,49,-1,-1,-1,-1,-1,-1,-1,-1],"loss_changes":[1.765246E4,1.0321996E4,2.5875977E1,1.1444482E3,2.3620801E2,1.5380859E0,2.757881E2,3.4679688E1,1.6013936E2,0E0,7.8061523E0,0E0,2.9273785E1,0E0,0E0,0E0,5.8282715E1,0E0,0E0,1.6520667E2,0E0,0E0,0E0,0E0,7.8011597E2,5.945135E0,0E0,0E0,3.1257324E0,0E0,3.5580502E0,3.2165527E0,0E0,0E0,2.9736557E0,9.7854E0,0E0,1.3861465E0,5.8003755E0,2.7211914E0,7.0730295E0,0E0,5.939308E-1,0E0,0E0,0E0,0E0,0E0,0E0,0E0,0E0],"parents":[2147483647,0,0,1,1,2,2,3,3,4,4,5,5,6,6,7,7,8,8,10,10,12,12,16,16,19,19,24,24,25,25,28,28,30,30,31,31,34,34,35,35,37,37,38,38,39,39,40,40,42,42],"right_children":[2,4,6,8,10,12,14,16,18,-1,20,-1,22,-1,-1,-1,24,-1,-1,26,-1,-1,-1,-1,28,30,-1,-1,32,-1,34,36,-1,-1,38,40,-1,42,44,46,48,-1,50,-1,-1,-1,-1,-1,-1,-1,-1],"split_conditions":[0E0,5.05E3,1.7E1,1.0007648E17,1.0001844E16,4.8123332E4,1.0006391E17,3.2663E4,6.1074E4,1.0078924E-1,3.3036E4,-1.0832448E-1,1.0001266E15,1.0111307E-1,-1.08510844E-1,1.02531806E-1,8E1,-1.100435E-1,1.00577176E-1,1.0004584E17,-1.0863896E-1,1.6512832E-1,-1.0635107E-1,1.0250411E-1,1.0006612E17,1.91E8,-1.0858927E-1,-1.1006706E-1,9.8E1,-7.4688554E-2,1E0,5.9289E4,1.0238544E-1,-5.3230044E-2,1.2E1,5.8696E4,1.0141052E-1,8.24E8,5E0,3.3242E4,5.9018E4,7.8678705E-2,8E0,-8.702266E-2,7.4077405E-2,1.4466149E-2,9.1725074E-2,-1.0069896E-1,5.05612E-2,4.4251215E-2,-3.9112795E-2],"split_indices":[7,4,5,2,2,15,2,3,3,0,4,0,2,0,0,0,4,0,0,2,0,0,0,0,2,9,0,0,14,0,8,3,0,0,8,3,0,9,1,3,3,0,8,0,0,0,0,0,0,0,0],"split_type":[0,0,0,0,0,0,0,0,0,0,0,0,0,0,0,0,0,0,0,0,0,0,0,0,0,0,0,0,0,0,0,0,0,0,0,0,0,0,0,0,0,0,0,0,0,0,0,0,0,0,0],"sum_hessian":[2.910301E4,2.0532648E4,8.570362E3,1.7359092E4,3.1735566E3,7.8871055E3,6.8325616E2,1.7012873E4,3.4621786E2,5.6224808E1,3.1173318E3,7.8410347E3,4.607116E1,6.941768E1,6.138385E2,9.370558E3,7.642316E3,3.0578033E2,4.0437515E1,8.8278467E2,2.234547E3,4.1207786E0,4.195038E1,3.634473E3,4.0078433E3,6.725433E1,8.1553033E2,1.9508429E2,3.8127588E3,2.7699862E0,6.4484344E1,3.1166455E3,6.961133E2,1.7051194E0,6.2779224E1,2.5377478E3,5.788979E2,5.356385E1,9.215375E0,2.5218596E3,1.5888131E1,5.0241043E1,3.3228066E0,3.568179E0,5.647196E0,7.6482353E0,2.5142114E3,4.0410705E0,1.184706E1,1.9984232E0,1.3243833E0],"tree_param":{"num_deleted":"0","num_feature":"19","num_nodes":"51","size_leaf_vector":"1"}},{"base_weights":[1.3853884E-1,6.387955E-1,-1.0558769E0,9.413383E-1,-1.0072675E0,-1.0734377E0,5.023797E-1,9.7248447E-1,-1.14870824E-1,-2.732176E-1,-1.0777497E-1,-1.0749053E-1,-7.860604E-1,9.382405E-1,-1.0280255E-1,-1.102829E-1,9.7678673E-1,-1.071301E-1,8.793035E-1,1.6007861E-1,-1.0528386E-1,-7.4322275E-3,1.01791754E-1,9.793952E-1,-1.025916E-1,9.9606633E-1,-9.458282E-2,1.023068E-1,8.804865E-1,1.0163521E-1,-0E0,-1.1397379E-1,1.0226067E-1],"categories":[],"categories_nodes":[],"categories_segments":[],"categories_sizes":[],"default_left":[0,0,0,0,0,0,0,0,0,0,0,0,0,0,0,0,0,0,0,0,0,0,0,0,0,0,0,0,0,0,0,0,0],"id":23,"left_children":[1,3,5,7,9,11,13,15,-1,17,-1,-1,19,21,-1,-1,23,-1,25,-1,-1,-1,-1,27,-1,29,-1,-1,31,-1,-1,-1,-1],"loss_changes":[1.5851999E4,9.312381E3,2.148623E2,1.0281426E3,1.4883203E2,1.4052734E0,5.7699112E1,1.3884863E2,0E0,2.3524606E2,0E0,0E0,2.6711731E1,6.424755E0,0E0,0E0,8.110254E1,0E0,2.2222687E1,0E0,0E0,0E0,0E0,6.5109375E1,0E0,2.9759598E0,0E0,0E0,1.3662329E3,0E0,0E0,0E0,0E0],"parents":[2147483647,0,0,1,1,2,2,3,3,4,4,5,5,6,6,7,7,9,9,12,12,13,13,16,16,18,18,23,23,25,25,28,28],"right_children":[2,4,6,8,10,12,14,16,-1,18,-1,-1,20,22,-1,-1,24,-1,26,-1,-1,-1,-1,28,-1,30,-1,-1,32,-1,-1,-1,-1],"split_conditions":[0E0,5.05E3,3E0,1.7339994E9,1.7339142E9,4.8123332E4,8E1,1.7339131E9,-1.14870824E-1,1.7339131E9,-1.0777497E-1,-1.0749053E-1,8E1,8E1,-1.0280255E-1,-1.102829E-1,6E0,-1.071301E-1,3.3036E4,1.6007861E-1,-1.0528386E-1,-7.4322275E-3,1.01791754E-1,1.7339142E9,-1.025916E-1,8.98288E-7,-9.458282E-2,1.023068E-1,1.733999E9,1.0163521E-1,-0E0,-1.1397379E-1,1.0226067E-1],"split_indices":[6,4,6,0,0,15,4,0,0,0,0,0,3,3,0,0,1,0,4,0,0,0,0,0,0,16,0,0,0,0,0,0,0],"split_type":[0,0,0,0,0,0,0,0,0,0,0,0,0,0,0,0,0,0,0,0,0,0,0,0,0,0,0,0,0,0,0,0,0],"sum_hessian":[2.65306E4,1.8699523E4,7.8310767E3,1.5796727E4,2.9027966E3,7.7444424E3,8.663435E1,1.556525E4,2.314772E2,2.5554688E2,2.6472498E3,7.7016323E3,4.2810074E1,6.793876E1,1.8695599E1,3.172022E1,1.5533529E4,1.5150337E2,1.04043495E2,3.9270031E0,3.888307E1,4.040463E0,6.3898293E1,1.5513822E4,1.9707132E1,9.83025E1,5.740999E0,1.0754922E4,4.7589004E3,9.7298515E1,1.0039847E0,3.123165E2,4.446584E3],"tree_param":{"num_deleted":"0","num_feature":"19","num_nodes":"33","size_leaf_vector":"1"}},{"base_weights":[1.372122E-1,6.372864E-1,-1.0479573E0,9.389346E-1,-9.9912995E-1,-1.065295E-1,4.9196294E-1,9.7566265E-1,-8.426411E-1,9.9923745E-2,-1.0349238E0,9.034839E-1,-1.01256184E-1,9.932605E-1,-1.17992416E-1,-1.0790702E-1,9.940659E-2,-5.863752E-1,-1.06969595E-1,-3.1385535E-1,1.0113025E-1,-1.0840271E-1,9.954356E-1,-1.0628068E-1,7.4413157E-1,-0E0,-7.790176E-2,1.0207733E-1,9.363927E-1,9.5917404E-1,-9.1286756E-2,-1.1567267E-1,1.02036394E-1,1.0038372E-1,-0E0],"categories":[],"categories_nodes":[],"categories_segments":[],"categories_sizes":[],"default_left":[0,0,0,0,0,0,0,0,0,0,0,0,0,0,0,0,0,0,0,0,0,0,0,0,0,0,0,0,0,0,0,0,0,0,0],"id":24,"left_children":[1,3,5,7,9,-1,11,13,15,-1,17,19,-1,21,-1,-1,-1,23,-1,25,-1,-1,27,-1,29,-1,-1,-1,31,33,-1,-1,-1,-1,-1],"loss_changes":[1.4293079E4,8.372357E3,1.9162354E2,9.372617E2,1.8882959E2,0E0,4.881973E1,5.321387E2,1.2546924E2,0E0,3.87937E1,8.910587E0,0E0,6.280664E1,0E0,0E0,0E0,1.1990431E2,0E0,1.3926736E0,0E0,0E0,1.8845703E1,0E0,1.7573244E1,0E0,0E0,0E0,7.3585986E2,2.849163E0,0E0,0E0,0E0,0E0,0E0],"parents":[2147483647,0,0,1,1,2,2,3,3,4,4,6,6,7,7,8,8,10,10,11,11,13,13,17,17,19,19,22,22,24,24,28,28,29,29],"right_children":[2,4,6,8,10,-1,12,14,16,-1,18,20,-1,22,-1,-1,-1,24,-1,26,-1,-1,28,-1,30,-1,-1,-1,32,34,-1,-1,-1,-1,-1],"split_conditions":[0E0,5.05E3,3E0,1.0007648E17,1.0001844E16,-1.065295E-1,8E1,1.7339994E9,6.1074E4,9.9923745E-2,1.7339142E9,1.000401E13,-1.01256184E-1,1.7339131E9,-1.17992416E-1,-1.0790702E-1,9.940659E-2,1.7339131E9,-1.06969595E-1,1.7339133E9,1.0113025E-1,-1.0840271E-1,1.7339142E9,-1.0628068E-1,3.3036E4,-0E0,-7.790176E-2,1.0207733E-1,1.733999E9,3.4714285E2,-9.1286756E-2,-1.1567267E-1,1.02036394E-1,1.0038372E-1,-0E0],"split_indices":[6,4,6,2,2,0,4,0,3,0,0,2,0,0,0,0,0,0,0,0,0,0,0,0,4,0,0,0,0,17,0,0,0,0,0],"split_type":[0,0,0,0,0,0,0,0,0,0,0,0,0,0,0,0,0,0,0,0,0,0,0,0,0,0,0,0,0,0,0,0,0,0,0],"sum_hessian":[2.4117004E4,1.696119E4,7.155815E3,1.4321797E4,2.639392E3,7.076788E3,7.9026596E1,1.4033061E4,2.887367E2,4.5952114E1,2.59344E3,6.2575474E1,1.6451124E1,1.3919885E4,1.13175606E2,2.562903E2,3.244639E1,1.8865202E2,2.4047878E3,4.336688E0,5.8238785E1,1.407921E1,1.3905806E4,1.3946397E2,4.9188053E1,1.3379158E0,2.9987721E0,9.71834E3,4.187466E3,4.407197E1,5.1160827E0,1.6105283E2,4.0264128E3,4.3064896E1,1.0070745E0],"tree_param":{"num_deleted":"0","num_feature":"19","num_nodes":"35","size_leaf_vector":"1"}},{"base_weights":[1.3696799E-1,6.3346523E-1,-1.0411901E0,8.7653416E-1,-1.031058E0,-1.058401E0,4.8043925E-1,-6.348074E-1,9.726302E-1,-1.06345646E-1,9.897373E-2,-1.05991535E-1,-7.5451523E-1,8.7758607E-1,-9.974792E-2,1.0108159E-1,-9.413892E-1,9.9012214E-1,-1.1596169E-1,1.5057205E-1,-1.0319274E-1,-2.8283867E-1,1.0094692E-1,4.421855E-2,-1.0629215E-1,-1.07095934E-1,9.9248564E-1,-0E0,-7.335445E-2,-1.0308021E-1,8.494009E-1,1.0188301E-1,9.313568E-1,-3.332364E-2,8.284414E-2,-3.3070713E-2,9.097483E-2,-1.1419558E-1,1.0183374E-1],"categories":[],"categories_nodes":[],"categories_segments":[],"categories_sizes":[],"default_left":[0,0,0,0,0,0,0,0,0,0,0,0,0,0,0,0,0,0,0,0,0,0,0,0,0,0,0,0,0,0,0,0,0,0,0,0,0,0,0],"id":25,"left_children":[1,3,5,7,9,11,13,15,17,-1,-1,-1,19,21,-1,-1,23,25,-1,-1,-1,27,-1,29,-1,-1,31,33,-1,-1,35,-1,37,-1,-1,-1,-1,-1,-1],"loss_changes":[1.2808587E4,6.233016E3,1.7058203E2,1.9527832E3,1.2856201E2,1.1391602E0,4.21132E1,4.0508716E2,4.7128027E2,0E0,0E0,0E0,2.1538069E1,9.487679E0,0E0,0E0,8.216626E1,6.1E1,0E0,0E0,0E0,1.0877148E0,0E0,6.3406254E1,0E0,0E0,1.8217773E1,9.312574E-1,0E0,0E0,3.6081772E0,0E0,6.821575E2,0E0,0E0,0E0,0E0,0E0,0E0],"parents":[2147483647,0,0,1,1,2,2,3,3,4,4,5,5,6,6,7,7,8,8,12,12,13,13,16,16,17,17,21,21,23,23,26,26,27,27,30,30,32,32],"right_children":[2,4,6,8,10,12,14,16,18,-1,-1,-1,20,22,-1,-1,24,26,-1,-1,-1,28,-1,30,-1,-1,32,34,-1,-1,36,-1,38,-1,-1,-1,-1,-1,-1],"split_conditions":[0E0,1.0007648E17,3E0,3.32E2,6.1074E4,4.8123332E4,1.0006391E17,1.0001844E16,1.7339994E9,-1.06345646E-1,9.897373E-2,-1.05991535E-1,1.0001266E15,3.32E2,-9.974792E-2,1.0108159E-1,1.7339142E9,1.7339131E9,-1.1596169E-1,1.5057205E-1,-1.0319274E-1,1.000501E12,1.0094692E-1,1.7339131E9,-1.0629215E-1,-1.07095934E-1,1.7339142E9,1.000201E12,-7.335445E-2,-1.0308021E-1,1.6E8,1.0188301E-1,1.733999E9,-3.332364E-2,8.284414E-2,-3.3070713E-2,9.097483E-2,-1.1419558E-1,1.0183374E-1],"split_indices":[6,2,6,3,3,15,2,2,0,0,0,0,2,3,0,0,0,0,0,0,0,2,0,0,0,0,0,2,0,0,9,0,0,0,0,0,0,0,0],"split_type":[0,0,0,0,0,0,0,0,0,0,0,0,0,0,0,0,0,0,0,0,0,0,0,0,0,0,0,0,0,0,0,0,0,0,0,0,0,0,0],"sum_hessian":[2.1897506E4,1.540599E4,6.491515E3,1.3443454E4,1.9625358E3,6.4195615E3,7.19534E1,8.0305646E2,1.2640398E4,1.9320549E3,3.0480785E1,6.384456E3,3.5105698E1,5.7246674E1,1.4706722E1,1.2560284E2,6.774536E2,1.2538012E4,1.023867E2,3.44364E0,3.1662056E1,5.0683475E0,5.217833E1,7.346183E1,6.039918E2,1.3876577E1,1.2524135E4,2.2933884E0,2.7749588E0,3.0927599E1,4.253423E1,8.74079E3,3.7833452E3,1.1172689E0,1.1761193E0,1.2631094E0,4.127112E1,1.5186726E2,3.6314778E3],"tree_param":{"num_deleted":"0","num_feature":"19","num_nodes":"39","size_leaf_vector":"1"}},{"base_weights":[1.3627625E-1,6.3148326E-1,-1.0339596E0,8.746897E-1,-1.02515E0,-1.0514616E0,4.915416E-1,7.317973E-1,1.0166513E-1,-2.0040704E-1,-1.0567081E-1,-1.0532389E-1,-7.0257235E-1,8.645759E-1,-9.816164E-2,1.351463E-1,9.603822E-1,-3.6327076E-1,8.908146E-2,1.6774946E-1,-1.02279656E-1,-0E0,9.956869E-2,1.0158747E-1,-9.622617E-1,1.0164654E-1,9.233464E-1,-2.9380733E-2,-8.785578E-2,-7.044145E-1,-9.903789E-2,9.0338963E-1,1.014668E-1,-1.0309272E-1,-4.2970806E-1,8.8295454E-1,1.0004246E-1,-2.6134023E-1,-9.497613E-2,8.845447E-1,2.569337E-2,-9.042359E-2,-7.499069E-3,8.9856994E-1,7.661887E-1,5.045209E-2,-3.9238166E-2,8.109975E-2,9.227144E-2,-9.619998E-2,8.051311E-2],"categories":[],"categories_nodes":[],"categories_segments":[],"categories_sizes":[],"default_left":[0,0,0,0,0,0,0,0,0,0,0,0,0,0,0,0,0,0,0,0,0,0,0,0,0,0,0,0,0,0,0,0,0,0,0,0,0,0,0,0,0,0,0,0,0,0,0,0,0,0,0],"id":26,"left_children":[1,3,5,7,9,11,13,15,-1,17,-1,-1,19,21,-1,23,25,27,-1,-1,-1,-1,-1,-1,29,-1,31,-1,-1,33,-1,35,-1,-1,37,39,-1,41,-1,43,45,-1,-1,47,49,-1,-1,-1,-1,-1,-1],"loss_changes":[1.152802E4,5.6319883E3,1.5847461E2,2.4552637E2,4.530481E1,1.8706055E0,3.6393917E1,8.279292E2,0E0,1.1397199E1,0E0,0E0,2.4110222E1,6.4116707E0,0E0,1.6285676E3,7.186035E0,9.459691E-1,0E0,0E0,0E0,0E0,0E0,0E0,3.7402954E0,0E0,2.9240723E0,0E0,0E0,5.4645844E0,0E0,2.4580078E0,0E0,0E0,2.6059961E0,1.5664062E0,0E0,3.14018E0,0E0,1.3441162E0,1.0186701E0,0E0,0E0,1.6765137E0,1.3275032E1,0E0,0E0,0E0,0E0,0E0,0E0],"parents":[2147483647,0,0,1,1,2,2,3,3,4,4,5,5,6,6,7,7,9,9,12,12,13,13,15,15,16,16,17,17,24,24,26,26,29,29,31,31,34,34,35,35,37,37,39,39,40,40,43,43,44,44],"right_children":[2,4,6,8,10,12,14,16,-1,18,-1,-1,20,22,-1,24,26,28,-1,-1,-1,-1,-1,-1,30,-1,32,-1,-1,34,-1,36,-1,-1,38,40,-1,42,-1,44,46,-1,-1,48,50,-1,-1,-1,-1,-1,-1],"split_conditions":[0E0,1.0007648E17,3E0,1.7E1,1.0008587E17,4.98977E5,1.0006391E17,1.0006612E17,1.0166513E-1,1E0,-1.0567081E-1,-1.0532389E-1,1.0001266E15,1.7E1,-9.816164E-2,1.0001102E17,1.0007317E17,1.8E1,8.908146E-2,1.6774946E-1,-1.02279656E-1,-0E0,9.956869E-2,1.0158747E-1,2E0,1.0164654E-1,1E0,-2.9380733E-2,-8.785578E-2,1E0,-9.903789E-2,1.0007598E17,1.014668E-1,-1.0309272E-1,6.01E8,2E1,1.0004246E-1,1.99E8,-9.497613E-2,5E0,6.2E7,-9.042359E-2,-7.499069E-3,2E0,4E0,5.045209E-2,-3.9238166E-2,8.109975E-2,9.227144E-2,-9.619998E-2,8.051311E-2],"split_indices":[6,2,6,5,2,13,2,2,0,13,0,0,2,5,0,2,2,8,0,0,0,0,0,0,8,0,13,0,0,8,0,2,0,0,9,8,0,9,0,1,9,0,0,1,8,0,0,0,0,0,0],"split_type":[0,0,0,0,0,0,0,0,0,0,0,0,0,0,0,0,0,0,0,0,0,0,0,0,0,0,0,0,0,0,0,0,0,0,0,0,0,0,0,0,0,0,0,0,0,0,0,0,0,0,0],"sum_hessian":[1.989343E4,1.3978867E4,5.914563E3,1.21899E4,1.7889669E3,5.8481235E3,6.64393E1,6.0785415E3,6.111359E3,6.7098335E1,1.7218687E3,5.8156304E3,3.2493286E1,5.355649E1,1.2882809E1,1.6849282E3,4.3936133E3,5.9181904E1,7.916435E0,3.4830081E0,2.9010277E1,6.7085423E0,4.684795E1,9.3525085E2,7.496773E2,1.7367145E3,2.656899E3,5.386172E1,5.320181E0,7.720843E1,6.7246893E2,2.189394E3,4.675049E2,3.3614452E1,4.359397E1,1.8170405E3,3.7235355E2,3.438475E1,9.209223E0,1.8125121E3,4.5284467E0,6.521089E0,2.786366E1,1.6129292E3,1.995829E2,3.2258024E0,1.3026441E0,3.5753918E2,1.25539E3,3.8323402E0,1.9575056E2],"tree_param":{"num_deleted":"0","num_feature":"19","num_nodes":"51","size_leaf_vector":"1"}},{"base_weights":[1.3634047E-1,6.292457E-1,-1.0276047E0,9.302921E-1,-9.7648865E-1,-1.045142E0,4.7126997E-1,9.6304643E-1,-1.1108273E-1,9.866288E-2,-1.0114526E0,-1.0473486E-1,-6.42638E-1,8.850044E-1,-9.794592E-2,9.8593223E-1,-6.568569E-1,-5.213959E-1,-1.0506322E-1,1.4766203E-1,-1.0148724E-1,-1.0954431E-2,1.00280575E-1,-1.0521529E-1,9.882498E-1,-1.05333865E-1,9.8494716E-2,-1.0415119E-1,7.239727E-1,1.01536475E-1,9.250323E-1,9.5094144E-1,-8.8161185E-2,-1.1339523E-1,1.01485245E-1,9.973053E-2,-0E0],"categories":[],"categories_nodes":[],"categories_segments":[],"categories_sizes":[],"default_left":[0,0,0,0,0,0,0,0,0,0,0,0,0,0,0,0,0,0,0,0,0,0,0,0,0,0,0,0,0,0,0,0,0,0,0,0,0],"id":27,"left_children":[1,3,5,7,9,11,13,15,-1,-1,17,-1,19,21,-1,23,25,27,-1,-1,-1,-1,-1,-1,29,-1,-1,-1,31,-1,33,35,-1,-1,-1,-1,-1],"loss_changes":[1.039217E4,6.1517773E3,1.4221533E2,7.163711E2,1.378988E2,3.0410156E0,3.6913406E1,3.9139844E2,0E0,0E0,3.63302E1,0E0,2.4397379E1,6.5768585E0,0E0,4.9069336E1,9.53311E1,9.620181E1,0E0,0E0,0E0,0E0,0E0,0E0,1.587207E1,0E0,0E0,0E0,1.5755146E1,0E0,5.7875806E2,2.4371986E0,0E0,0E0,0E0,0E0,0E0],"parents":[2147483647,0,0,1,1,2,2,3,3,4,4,5,5,6,6,7,7,10,10,12,12,13,13,15,15,16,16,17,17,24,24,28,28,30,30,31,31],"right_children":[2,4,6,8,10,12,14,16,-1,-1,18,-1,20,22,-1,24,26,28,-1,-1,-1,-1,-1,-1,30,-1,-1,-1,32,-1,34,36,-1,-1,-1,-1,-1],"split_conditions":[0E0,5.05E3,3E0,1.7339994E9,1.0001844E16,4.8123332E4,8E1,1.0007648E17,-1.1108273E-1,9.866288E-2,1.7339142E9,-1.0473486E-1,1.0001266E15,1.000401E13,-9.794592E-2,1.7339131E9,6.0792E4,1.7339131E9,-1.0506322E-1,1.4766203E-1,-1.0148724E-1,-1.0954431E-2,1.00280575E-1,-1.0521529E-1,1.7339142E9,-1.05333865E-1,9.8494716E-2,-1.0415119E-1,3.3036E4,1.01536475E-1,1.733999E9,4E0,-8.8161185E-2,-1.1339523E-1,1.01485245E-1,9.973053E-2,-0E0],"split_indices":[6,4,6,0,2,15,4,2,0,0,0,0,2,2,0,0,3,0,0,0,0,0,0,0,0,0,0,0,4,0,0,15,0,0,0,0,0],"split_type":[0,0,0,0,0,0,0,0,0,0,0,0,0,0,0,0,0,0,0,0,0,0,0,0,0,0,0,0,0,0,0,0,0,0,0,0,0],"sum_hessian":[1.8114523E4,1.2726141E4,5.388383E3,1.0717437E4,2.0087042E3,5.326725E3,6.165751E1,1.054865E4,1.6878664E2,3.4649303E1,1.9740549E3,5.2952124E3,3.1512688E1,4.8511726E1,1.3145784E1,1.0402305E4,1.4634517E2,1.4802983E2,1.8260251E3,4.3066983E0,2.7205988E1,4.2385454E0,4.427318E1,1.1325249E1,1.03909795E4,1.1836911E2,2.797605E1,1.049863E2,4.3043526E1,7.260864E3,3.1301157E3,3.8258106E1,4.7854195E0,1.3037349E2,2.9997424E3,3.723401E1,1.0240961E0],"tree_param":{"num_deleted":"0","num_feature":"19","num_nodes":"37","size_leaf_vector":"1"}},{"base_weights":[1.3558589E-1,6.2736315E-1,-1.0227928E0,9.272248E-1,-9.707234E-1,-1.0399154E0,4.392072E-1,9.602466E-1,-1.101249E-1,9.827406E-2,-1.0061368E0,-1.04177974E-1,-6.819277E-1,8.6439294E-1,-9.696151E-2,9.836428E-1,-6.632184E-1,-5.1189595E-1,-1.0454597E-1,1.4902817E-1,-1.0059003E-1,-2.3766683E-2,9.98061E-2,-1.0361719E-1,9.8613423E-1,-1.0461249E-1,9.787965E-2,-1.0354381E-1,7.3093843E-1,1.0137023E-1,9.219595E-1,9.418912E-1,-8.415414E-2,-1.1201423E-1,1.0133523E-1,9.923494E-2,-0E0],"categories":[],"categories_nodes":[],"categories_segments":[],"categories_sizes":[],"default_left":[0,0,0,0,0,0,0,0,0,0,0,0,0,0,0,0,0,0,0,0,0,0,0,0,0,0,0,0,0,0,0,0,0,0,0,0,0],"id":28,"left_children":[1,3,5,7,9,11,13,15,-1,-1,17,-1,19,21,-1,23,25,27,-1,-1,-1,-1,-1,-1,29,-1,-1,-1,31,-1,33,35,-1,-1,-1,-1,-1],"loss_changes":[9.35871E3,5.5269E3,1.2315283E2,6.5039746E2,1.26045654E2,1.5063477E0,3.343714E1,3.6331445E2,0E0,0E0,3.3226685E1,0E0,1.9115044E1,7.1771736E0,0E0,4.7362305E1,8.504872E1,8.7350006E1,0E0,0E0,0E0,0E0,0E0,0E0,1.4712891E1,0E0,0E0,0E0,1.3065407E1,0E0,5.2968896E2,2.390976E0,0E0,0E0,0E0,0E0,0E0],"parents":[2147483647,0,0,1,1,2,2,3,3,4,4,5,5,6,6,7,7,10,10,12,12,13,13,15,15,16,16,17,17,24,24,28,28,30,30,31,31],"right_children":[2,4,6,8,10,12,14,16,-1,-1,18,-1,20,22,-1,24,26,28,-1,-1,-1,-1,-1,-1,30,-1,-1,-1,32,-1,34,36,-1,-1,-1,-1,-1],"split_conditions":[0E0,5.05E3,3E0,1.7339994E9,1.0001844E16,4.98977E5,8E1,1.0007648E17,-1.101249E-1,9.827406E-2,1.7339142E9,-1.04177974E-1,1.0001266E15,1.000401E13,-9.696151E-2,1.7339131E9,6.0792E4,1.7339131E9,-1.0454597E-1,1.4902817E-1,-1.0059003E-1,-2.3766683E-2,9.98061E-2,-1.0361719E-1,1.7339142E9,-1.0461249E-1,9.787965E-2,-1.0354381E-1,3.3036E4,1.0137023E-1,1.733999E9,3.4714285E2,-8.415414E-2,-1.1201423E-1,1.0133523E-1,9.923494E-2,-0E0],"split_indices":[6,4,6,0,2,13,4,2,0,0,0,0,2,2,0,0,3,0,0,0,0,0,0,0,0,0,0,0,4,0,0,17,0,0,0,0,0],"split_type":[0,0,0,0,0,0,0,0,0,0,0,0,0,0,0,0,0,0,0,0,0,0,0,0,0,0,0,0,0,0,0,0,0,0,0,0,0],"sum_hessian":[1.6429158E4,1.1533568E4,4.8955894E3,9.711878E3,1.821691E3,4.8395933E3,5.5996223E1,9.556794E3,1.5508319E2,3.1933723E1,1.7897573E3,4.8117427E3,2.7850525E1,4.355964E1,1.2436586E1,9.421633E3,1.3516176E2,1.33777E2,1.6559803E3,3.2140317E0,2.4636494E1,3.9025836E0,3.9657055E1,1.1112665E1,9.41052E3,1.1009692E2,2.5064838E1,9.469252E1,3.9084473E1,6.57182E3,2.8387E3,3.5022095E1,4.0623775E0,1.21133026E2,2.717567E3,3.3979076E1,1.0430189E0],"tree_param":{"num_deleted":"0","num_feature":"19","num_nodes":"37","size_leaf_vector":"1"}},{"base_weights":[1.350498E-1,6.251918E-1,-1.0173099E0,9.248249E-1,-9.667654E-1,-1.0343609E0,4.294646E-1,9.5823026E-1,-1.09029345E-1,9.7747944E-2,-1.0012319E0,-1.036222E-1,-6.576258E-1,8.469057E-1,-9.568735E-2,9.7669584E-1,-1.0345247E-1,-5.06433E-1,-1.0408669E-1,1.4658703E-1,-9.9516116E-2,-1.7008271E-2,9.926654E-2,-1.0187966E-1,9.794647E-1,-1.0299873E-1,7.421653E-1,9.8349094E-1,1.0402389E-1,9.3303E-1,-7.809751E-2,1.01232074E-1,9.1637516E-1,9.737488E-2,-1.00311E-1,9.877869E-2,-0E0,-1.1077919E-1,1.0119913E-1],"categories":[],"categories_nodes":[],"categories_segments":[],"categories_sizes":[],"default_left":[0,0,0,0,0,0,0,0,0,0,0,0,0,0,0,0,0,0,0,0,0,0,0,0,0,0,0,0,0,0,0,0,0,0,0,0,0,0,0],"id":29,"left_children":[1,3,5,7,9,11,13,15,-1,-1,17,-1,19,21,-1,23,-1,25,-1,-1,-1,-1,-1,-1,27,-1,29,31,33,35,-1,-1,37,-1,-1,-1,-1,-1,-1],"loss_changes":[8.422785E3,4.99104E3,1.1037207E2,5.926841E2,1.11055176E2,1.3896484E0,2.9489471E1,3.1873096E2,0E0,0E0,3.0390747E1,0E0,1.6919996E1,6.731945E0,0E0,4.7393555E1,0E0,8.046416E1,0E0,0E0,0E0,0E0,0E0,0E0,2.9128906E1,0E0,1.0521877E1,1.4581055E1,3.8856396E1,2.4104347E0,0E0,0E0,4.9814087E2,0E0,0E0,0E0,0E0,0E0,0E0],"parents":[2147483647,0,0,1,1,2,2,3,3,4,4,5,5,6,6,7,7,10,10,12,12,13,13,15,15,17,17,24,24,26,26,27,27,28,28,29,29,32,32],"right_children":[2,4,6,8,10,12,14,16,-1,-1,18,-1,20,22,-1,24,-1,26,-1,-1,-1,-1,-1,-1,28,-1,30,32,34,36,-1,-1,38,-1,-1,-1,-1,-1,-1],"split_conditions":[0E0,5.05E3,3E0,1.7339994E9,1.0001844E16,4.98977E5,8E1,1.0008587E17,-1.09029345E-1,9.7747944E-2,1.7339142E9,-1.036222E-1,1.0001266E15,1.000401E13,-9.568735E-2,1.7339131E9,-1.0345247E-1,1.7339131E9,-1.0408669E-1,1.4658703E-1,-9.9516116E-2,-1.7008271E-2,9.926654E-2,-1.0187966E-1,1.0007648E17,-1.0299873E-1,3.3036E4,1.7339142E9,1.7339142E9,3.4714285E2,-7.809751E-2,1.01232074E-1,1.733999E9,9.737488E-2,-1.00311E-1,9.877869E-2,-0E0,-1.1077919E-1,1.0119913E-1],"split_indices":[6,4,6,0,2,13,4,2,0,0,0,0,2,2,0,0,0,0,0,0,0,0,0,0,2,0,4,0,0,17,0,0,0,0,0,0,0,0,0],"split_type":[0,0,0,0,0,0,0,0,0,0,0,0,0,0,0,0,0,0,0,0,0,0,0,0,0,0,0,0,0,0,0,0,0,0,0,0,0,0,0],"sum_hessian":[1.4913031E4,1.0463415E4,4.4496167E3,8.80651E3,1.656905E3,4.3984697E3,5.1146877E1,8.66339E3,1.4311987E2,2.8355736E1,1.6285493E3,4.374207E3,2.4263105E1,3.986456E1,1.1282317E1,8.584347E3,7.9043655E1,1.22648346E2,1.505901E3,2.9213998E0,2.1341707E1,4.137306E0,3.5727253E1,1.13946E1,8.572951E3,8.697813E1,3.5670223E1,8.532567E3,4.0383923E1,3.228156E1,3.3886633E0,5.958273E3,2.5742947E3,2.312275E1,1.7261175E1,3.1272179E1,1.0093789E0,1.15645836E2,2.458649E3],"tree_param":{"num_deleted":"0","num_feature":"19","num_nodes":"39","size_leaf_vector":"1"}},{"base_weights":[1.357291E-1,6.2495697E-1,-1.0115157E0,9.2490023E-1,-9.624932E-1,-1.0265521E0,-8.3412594E-1,9.6176535E-1,-7.8400517E-1,9.736337E-2,-9.976528E-1,-1.0342278E-1,-8.8092875E-1,9.7953215E-2,-1.0337707E-1,1.0110264E-1,9.020849E-1,-1.0379367E-1,9.671937E-2,-8.965767E-1,-1.0364113E-1,1.0898908E0,-9.6874505E-1,1.0106086E-1,8.061696E-1,5.0642115E-1,-1.0353761E-1,2.3412492E0,-1.03210166E-1,-1.0424812E-1,9.005692E-1,-7.6096556E-3,5.975426E-2,4.2434874E-1,9.694179E-2,8.769599E-1,1.0080325E-1,8.5114914E-1,9.911904E-2,8.5649395E-1,-0E0,8.734187E-2,7.192161E-2,-7.2785184E-2,4.4146504E-2],"categories":[],"categories_nodes":[],"categories_segments":[],"categories_sizes":[],"default_left":[0,0,0,0,0,0,0,0,0,0,0,0,0,0,0,0,0,0,0,0,0,0,0,0,0,0,0,0,0,0,0,0,0,0,0,0,0,0,0,0,0,0,0,0,0],"id":30,"left_children":[1,3,5,7,9,11,13,15,17,-1,19,-1,21,-1,-1,-1,23,-1,-1,25,-1,-1,27,-1,29,31,-1,33,-1,-1,35,-1,-1,-1,-1,37,-1,39,-1,41,43,-1,-1,-1,-1],"loss_changes":[7.5922373E3,4.5158086E3,8.924805E0,5.0275195E2,1.0258972E2,2.2456055E0,1.1634265E2,2.1046387E1,7.472726E1,0E0,3.866333E0,0E0,1.8962286E2,0E0,0E0,0E0,3.503662E1,0E0,0E0,8.1822815E1,0E0,0E0,3.8863342E1,0E0,3.2869568E2,2.4818354E0,0E0,3.4022198E0,0E0,0E0,2.664795E0,0E0,0E0,0E0,0E0,2.5151367E0,0E0,4.7855835E0,0E0,1.204956E0,2.5073338E0,0E0,0E0,0E0,0E0],"parents":[2147483647,0,0,1,1,2,2,3,3,4,4,5,5,6,6,7,7,8,8,10,10,12,12,16,16,19,19,22,22,24,24,25,25,27,27,30,30,35,35,37,37,39,39,40,40],"right_children":[2,4,6,8,10,12,14,16,18,-1,20,-1,22,-1,-1,-1,24,-1,-1,26,-1,-1,28,-1,30,32,-1,34,-1,-1,36,-1,-1,-1,-1,38,-1,40,-1,42,44,-1,-1,-1,-1],"split_conditions":[0E0,5.05E3,1.7E1,1.0007648E17,1.0001844E16,1.46948E5,1.0006391E17,3.2663E4,6.1074E4,9.736337E-2,3.3036E4,-1.0342278E-1,1.000801E12,9.7953215E-2,-1.0337707E-1,1.0110264E-1,8E1,-1.0379367E-1,9.671937E-2,1.0004584E17,-1.0364113E-1,1.0898908E0,1.0001266E15,1.0106086E-1,1.0006612E17,2.69E8,-1.0353761E-1,1.4345718E-3,-1.03210166E-1,-1.0424812E-1,1E0,-7.6096556E-3,5.975426E-2,4.2434874E-1,9.694179E-2,5.9289E4,1.0080325E-1,5.8696E4,9.911904E-2,5E0,5.9018E4,8.734187E-2,7.192161E-2,-7.2785184E-2,4.4146504E-2],"split_indices":[7,4,5,2,2,13,2,3,3,0,4,0,2,0,0,0,4,0,0,2,0,0,2,0,2,9,0,16,0,0,13,0,0,0,0,3,0,3,0,1,3,0,0,0,0],"split_type":[0,0,0,0,0,0,0,0,0,0,0,0,0,0,0,0,0,0,0,0,0,0,0,0,0,0,0,0,0,0,0,0,0,0,0,0,0,0,0,0,0,0,0,0,0],"sum_hessian":[1.352772E4,9.484183E3,4.0435364E3,7.9774927E3,1.5066902E3,3.7223752E3,3.2116122E2,7.8096064E3,1.6788644E2,2.636587E1,1.4803243E3,3.52947E3,1.9290527E2,3.135056E1,2.8981067E2,4.2690903E3,3.540516E3,1.4712387E2,2.0762573E1,4.174582E2,1.0628661E3,1.3431658E0,1.9156212E2,1.6561887E3,1.8843274E3,3.6932823E1,3.8052536E2,3.3013835E0,1.8826073E2,9.103194E1,1.7932954E3,3.5113335E0,3.342149E1,1.0778457E0,2.223538E0,1.4779095E3,3.153859E2,1.2126595E3,2.6525003E2,1.2040956E3,8.5639515E0,1.0654536E3,1.3864192E2,2.5032883E0,6.0606627E0],"tree_param":{"num_deleted":"0","num_feature":"19","num_nodes":"45","size_leaf_vector":"1"}},{"base_weights":[1.347702E-1,6.2089556E-1,-1.0079198E0,9.196411E-1,-9.572872E-1,-1.0252382E0,4.4923103E-1,9.547179E-1,-1.0864215E-1,9.687529E-2,-9.922424E-1,-1.0326817E-1,-8.9702374E-1,8.395917E-1,-9.237131E-2,9.7775203E-1,-6.3894886E-1,-4.8989913E-1,-1.0330232E-1,4.583421E0,-1.0287402E-1,-4.684791E-4,9.8645955E-2,-1.004018E-1,9.803817E-1,-1.02838896E-1,9.6209034E-2,-1.0198506E-1,7.0403326E-1,9.3825716E-1,1.2300487E-1,1.0099699E-1,9.1149235E-1,9.195134E-1,-7.694504E-2,-1.103001E-1,1.00963295E-1,9.7954184E-2,-0E0],"categories":[],"categories_nodes":[],"categories_segments":[],"categories_sizes":[],"default_left":[0,0,0,0,0,0,0,0,0,0,0,0,0,0,0,0,0,0,0,0,0,0,0,0,0,0,0,0,0,0,0,0,0,0,0,0,0,0,0],"id":31,"left_children":[1,3,5,7,9,11,13,15,-1,-1,17,-1,19,21,-1,23,25,27,-1,29,-1,-1,-1,-1,31,-1,-1,-1,33,-1,-1,-1,35,37,-1,-1,-1,-1,-1],"loss_changes":[6.832869E3,4.06905E3,9.320874E1,5.1054395E2,9.247229E1,1.5332031E0,2.2659443E1,2.621875E2,0E0,0E0,2.61167E1,0E0,1.4547865E2,5.1491985E0,0E0,3.6625E1,6.304808E1,6.557956E1,0E0,6.449984E1,0E0,0E0,0E0,0E0,1.2394043E1,0E0,0E0,0E0,1.0033736E1,0E0,0E0,0E0,4.191089E2,2.197258E0,0E0,0E0,0E0,0E0,0E0],"parents":[2147483647,0,0,1,1,2,2,3,3,4,4,5,5,6,6,7,7,10,10,12,12,13,13,15,15,16,16,17,17,19,19,24,24,28,28,32,32,33,33],"right_children":[2,4,6,8,10,12,14,16,-1,-1,18,-1,20,22,-1,24,26,28,-1,30,-1,-1,-1,-1,32,-1,-1,-1,34,-1,-1,-1,36,38,-1,-1,-1,-1,-1],"split_conditions":[0E0,5.05E3,3E0,1.7339994E9,1.0001844E16,1.17506E5,8E1,1.0007648E17,-1.0864215E-1,9.687529E-2,1.7339142E9,-1.0326817E-1,1.0001266E15,1.000401E13,-9.237131E-2,1.7339131E9,6.0792E4,1.7339131E9,-1.0330232E-1,4.11215E5,-1.0287402E-1,-4.684791E-4,9.8645955E-2,-1.004018E-1,1.7339142E9,-1.02838896E-1,9.6209034E-2,-1.0198506E-1,3.3036E4,9.3825716E-1,1.2300487E-1,1.0099699E-1,1.733999E9,3.4468085E-6,-7.694504E-2,-1.103001E-1,1.00963295E-1,9.7954184E-2,-0E0],"split_indices":[6,4,6,0,2,13,4,2,0,0,0,0,2,2,0,0,3,0,0,13,0,0,0,0,0,0,0,0,4,0,0,0,0,18,0,0,0,0,0],"split_type":[0,0,0,0,0,0,0,0,0,0,0,0,0,0,0,0,0,0,0,0,0,0,0,0,0,0,0,0,0,0,0,0,0,0,0,0,0,0,0],"sum_hessian":[1.23013E4,8.63055E3,3.67075E3,7.257382E3,1.3731678E3,3.6283135E3,4.2436512E1,7.133154E3,1.2422767E2,2.3967112E1,1.3492007E3,3.4218574E3,2.0645602E2,3.3609028E1,8.827484E0,7.032142E3,1.0101182E2,1.031469E2,1.2460538E3,4.667302E0,2.0178873E2,3.9712558E0,2.9637772E1,8.815083E0,7.023327E3,8.17511E1,1.926072E1,7.201786E1,3.112904E1,1.7971375E0,2.8701649E0,4.9029717E3,2.1203557E3,2.7749636E1,3.379403E0,9.802599E1,2.0223297E3,2.6742733E1,1.0069038E0],"tree_param":{"num_deleted":"0","num_feature":"19","num_nodes":"39","size_leaf_vector":"1"}},{"base_weights":[1.3342114E-1,6.194467E-1,-1.005455E0,9.169295E-1,-9.541518E-1,-6.849385E-1,-1.0251724E-1,9.524568E-1,-1.07742146E-1,9.623615E-2,-9.882715E-1,-9.95457E-1,6.551288E-1,9.7564614E-1,-6.3735926E-1,-4.8184767E-1,-1.02959625E-1,-0E0,-1.0076094E0,9.788895E-2,-2.6393327E-1,-9.826742E-2,9.783317E-1,-1.0232812E-1,9.554499E-2,-1.01517275E-1,7.050214E-1,-1.01421155E-1,-0E0,-8.77006E-2,1.1205127E-1,1.0089296E-1,9.07202E-1,9.312587E-1,-7.525935E-2,-1.0920806E-1,1.0086083E-1,9.741124E-2,-0E0],"categories":[],"categories_nodes":[],"categories_segments":[],"categories_sizes":[],"default_left":[0,0,0,0,0,0,0,0,0,0,0,0,0,0,0,0,0,0,0,0,0,0,0,0,0,0,0,0,0,0,0,0,0,0,0,0,0,0,0],"id":32,"left_children":[1,3,5,7,9,11,-1,13,-1,-1,15,17,19,21,23,25,-1,-1,27,-1,29,-1,31,-1,-1,-1,33,-1,-1,-1,-1,-1,35,37,-1,-1,-1,-1,-1],"loss_changes":[6.1695513E3,3.6574653E3,1.935669E1,4.654917E2,8.122046E1,8.194978E1,0E0,2.3838672E2,0E0,0E0,2.403064E1,2.213791E0,1.1513228E1,3.3469727E1,5.6748695E1,5.9750427E1,0E0,0E0,6.634674E-1,0E0,7.0975084E0,0E0,1.191748E1,0E0,0E0,0E0,9.587762E0,0E0,0E0,0E0,0E0,0E0,3.8953748E2,1.1020889E0,0E0,0E0,0E0,0E0,0E0],"parents":[2147483647,0,0,1,1,2,2,3,3,4,4,5,5,7,7,10,10,11,11,12,12,13,13,14,14,15,15,18,18,20,20,22,22,26,26,32,32,33,33],"right_children":[2,4,6,8,10,12,-1,14,-1,-1,16,18,20,22,24,26,-1,-1,28,-1,30,-1,32,-1,-1,-1,34,-1,-1,-1,-1,-1,36,38,-1,-1,-1,-1,-1],"split_conditions":[0E0,5.05E3,1.7339142E9,1.7339994E9,1.0001844E16,1.7339131E9,-1.0251724E-1,1.0007648E17,-1.07742146E-1,9.623615E-2,1.7339142E9,1E0,1.7339133E9,1.7339131E9,6.0792E4,1.7339131E9,-1.02959625E-1,-0E0,4.98977E5,9.788895E-2,1.46948E5,-9.826742E-2,1.7339142E9,-1.0232812E-1,9.554499E-2,-1.01517275E-1,3.3036E4,-1.01421155E-1,-0E0,-8.77006E-2,1.1205127E-1,1.0089296E-1,1.733999E9,1E0,-7.525935E-2,-1.0920806E-1,1.0086083E-1,9.741124E-2,-0E0],"split_indices":[7,4,0,0,2,0,0,2,0,0,0,8,0,0,3,0,0,0,13,0,13,0,0,0,0,0,4,0,0,0,0,0,0,13,0,0,0,0,0],"split_type":[0,0,0,0,0,0,0,0,0,0,0,0,0,0,0,0,0,0,0,0,0,0,0,0,0,0,0,0,0,0,0,0,0,0,0,0,0,0,0],"sum_hessian":[1.1146671E4,7.8131978E3,3.3334739E3,6.571513E3,1.2416841E3,1.9612206E2,3.1373518E3,6.45699E3,1.1452308E2,2.1206356E1,1.2204778E3,1.598322E2,3.628986E1,6.3647812E3,9.2208984E1,9.390442E1,1.1265734E3,1.6516378E0,1.5818056E2,2.7640814E1,8.649045E0,8.206457E0,6.3565747E3,7.473037E1,1.7478611E1,6.537183E1,2.853258E1,1.5677287E2,1.4076803E0,6.4951262E0,2.153919E0,4.434797E3,1.9217782E3,2.5292906E1,3.2396746E0,9.229367E1,1.8294845E3,2.4277897E1,1.0150081E0],"tree_param":{"num_deleted":"0","num_feature":"19","num_nodes":"39","size_leaf_vector":"1"}},{"base_weights":[1.330764E-1,6.186945E-1,-1.000957E0,9.1686314E-1,-9.5179045E-1,-1.0181034E0,4.1201952E-1,9.523068E-1,-1.0680342E-1,9.574868E-2,-9.8631686E-1,-1.0266129E-1,-8.7203807E-1,8.142118E-1,-9.0203285E-2,9.7060376E-1,-1.0125251E-1,-4.8854637E-1,-1.0265334E-1,3.127926E0,-1.0214251E-1,-0E0,9.774564E-2,-9.687483E-2,9.735292E-1,-1.0106603E-1,6.8437636E-1,5.186994E-1,1.354593E-1,9.77592E-1,9.62968E-2,9.194707E-2,-7.2658814E-2,1.007983E-1,9.0681165E-1,9.48603E-2,-9.564136E-2,-1.0813035E-1,1.0076728E-1],"categories":[],"categories_nodes":[],"categories_segments":[],"categories_sizes":[],"default_left":[0,0,0,0,0,0,0,0,0,0,0,0,0,0,0,0,0,0,0,0,0,0,0,0,0,0,0,0,0,0,0,0,0,0,0,0,0,0,0],"id":33,"left_children":[1,3,5,7,9,11,13,15,-1,-1,17,-1,19,21,-1,23,-1,25,-1,27,-1,-1,-1,-1,29,-1,31,-1,-1,33,35,-1,-1,-1,37,-1,-1,-1,-1],"loss_changes":[5.5693857E3,3.3162698E3,7.405908E1,4.1865723E2,7.448584E1,1.8254395E0,1.8753529E1,2.1021826E2,0E0,0E0,2.070459E1,0E0,1.0031879E2,4.5890865E0,0E0,3.2882812E1,0E0,5.2277218E1,0E0,1.5112083E1,0E0,0E0,0E0,0E0,1.9550781E1,0E0,8.664873E0,0E0,0E0,1.0473633E1,2.494646E1,0E0,0E0,0E0,3.4881287E2,0E0,0E0,0E0,0E0],"parents":[2147483647,0,0,1,1,2,2,3,3,4,4,5,5,6,6,7,7,10,10,12,12,13,13,15,15,17,17,19,19,24,24,26,26,29,29,30,30,34,34],"right_children":[2,4,6,8,10,12,14,16,-1,-1,18,-1,20,22,-1,24,-1,26,-1,28,-1,-1,-1,-1,30,-1,32,-1,-1,34,36,-1,-1,-1,38,-1,-1,-1,-1],"split_conditions":[0E0,5.05E3,3E0,1.7339994E9,1.0001844E16,1.17506E5,8E1,1.0008587E17,-1.0680342E-1,9.574868E-2,1.7339142E9,-1.0266129E-1,1.0001266E15,1.000401E13,-9.0203285E-2,1.7339131E9,-1.0125251E-1,1.7339131E9,-1.0265334E-1,3.951075E4,-1.0214251E-1,-0E0,9.774564E-2,-9.687483E-2,1.0007648E17,-1.0106603E-1,3.3036E4,5.186994E-1,1.354593E-1,1.7339142E9,1.7339142E9,9.194707E-2,-7.2658814E-2,1.007983E-1,1.733999E9,9.48603E-2,-9.564136E-2,-1.0813035E-1,1.0076728E-1],"split_indices":[6,4,6,0,2,13,4,2,0,0,0,0,2,2,0,0,0,0,0,15,0,0,0,0,2,0,4,0,0,0,0,0,0,0,0,0,0,0,0],"split_type":[0,0,0,0,0,0,0,0,0,0,0,0,0,0,0,0,0,0,0,0,0,0,0,0,0,0,0,0,0,0,0,0,0,0,0,0,0,0,0],"sum_hessian":[1.0113848E4,7.0820425E3,3.031805E3,5.952543E3,1.1294995E3,2.9961543E3,3.5650497E1,5.8486104E3,1.039328E2,1.954805E1,1.1099515E3,2.8247437E3,1.7141077E2,2.7878672E1,7.7718263E0,5.7951533E3,5.345685E1,8.48318E1,1.0251198E3,5.9302163E0,1.6548056E2,3.7312016E0,2.414747E1,8.2137165E0,5.78694E3,5.929143E1,2.554037E1,2.4831035E0,3.4471128E0,5.7591274E3,2.7812521E1,2.2500141E1,3.0402293E0,4.0192495E3,1.7398778E3,1.5894103E1,1.1918419E1,8.352707E1,1.6563507E3],"tree_param":{"num_deleted":"0","num_feature":"19","num_nodes":"39","size_leaf_vector":"1"}},{"base_weights":[1.3305068E-1,6.1771226E-1,-9.963091E-1,9.1594255E-1,-9.48077E-1,-1.014088E0,4.2647776E-1,9.501951E-1,-1.058171E-1,-1.988722E-1,-1.02377E-1,-1.0234853E-1,-8.5471433E-1,8.235164E-1,-8.880696E-2,-9.776925E-2,9.548438E-1,-1.0063656E-1,8.297027E-1,2.476169E0,-1.01817384E-1,-0E0,9.765209E-2,1.0071317E-1,8.37135E-1,9.5428E-1,-6.642634E-2,3.361461E-1,1.0636236E-1,-1.05504416E-1,1.00681625E-1,9.83991E-2,-0E0],"categories":[],"categories_nodes":[],"categories_segments":[],"categories_sizes":[],"default_left":[0,0,0,0,0,0,0,0,0,0,0,0,0,0,0,0,0,0,0,0,0,0,0,0,0,0,0,0,0,0,0,0,0],"id":34,"left_children":[1,3,5,7,9,11,13,15,-1,17,-1,-1,19,21,-1,-1,23,-1,25,27,-1,-1,-1,-1,29,31,-1,-1,-1,-1,-1,-1,-1],"loss_changes":[5.0226084E3,2.9987249E3,7.027734E1,3.6468506E2,5.7012695E1,2.197754E0,1.7319286E1,4.7506836E1,0E0,7.944733E1,0E0,0E0,8.428018E1,3.900877E0,0E0,0E0,3.072168E1,0E0,